the -0.928588 -2.682522 0.461252 -0.015686 0.671481 -0.422391 -1.176631 2.100618 0.161019 -0.500363 0.451994 0.007220 -0.244414 -0.593933 -0.991913 -0.597603 0.515435 -1.383492 -0.131715 0.291889 -0.894691 -0.685754 0.290094 1.481991 0.298485 1.078367 -0.466102 0.881586 0.156725 0.253870 -0.671051 0.254958 0.545454 1.223992 0.391351 -0.031619 -1.180161 -0.643400 -0.077754 -1.858775 -0.338570 1.201284 0.024275 -0.234437 -0.752595 -0.661995 -0.661951 0.196318 0.230532 0.465160
of 0.161181 -3.051118 -0.218422 -0.692335 -0.248969 0.126708 -1.708474 1.726769 0.600920 -0.641815 0.565399 0.496601 -0.446149 0.214836 -1.233954 -0.284214 -0.117370 -0.956953 -0.053472 0.485918 -0.877995 -0.396478 -0.050020 2.000564 -0.405435 -0.161112 -0.541570 -0.184366 0.045710 -0.232857 -1.679305 0.050884 0.732278 1.136800 0.792020 -0.058746 -1.041266 -0.587793 -0.056347 -1.106698 -0.239300 1.605236 -0.470236 -1.031442 -0.255705 -0.950240 0.041947 0.413370 0.493552 0.722229
and 0.090007 -2.234706 0.265389 -0.186793 -0.265737 0.742128 -0.669391 1.250316 -0.005717 0.008913 0.247716 0.592563 -0.843286 0.260891 -0.511222 -0.992287 0.586963 -1.169546 0.551174 -0.082459 -0.595371 -0.754409 -0.126413 1.692837 -0.418864 0.606490 -0.626951 -0.248042 0.045789 -0.067548 -0.969287 -0.327060 0.388174 0.748664 -0.227662 -0.755170 -1.276746 -0.010088 -1.280402 -1.371091 -0.801102 1.523735 -0.276331 -0.198647 -0.527519 -1.217307 -0.124899 -0.035772 1.216956 0.812993
one -0.186207 -2.358779 -0.041410 0.931344 -0.172595 -0.200590 -1.493150 1.130547 -0.119419 0.404308 0.153989 0.282281 -0.348906 -1.004077 -0.279228 -0.278093 1.413304 -0.599968 0.851798 0.523834 -0.426367 -1.043425 0.369951 2.213702 0.125140 -0.338451 0.921089 0.449893 0.240919 0.406539 -0.288919 -0.817377 0.861084 1.209197 0.106194 -0.136358 -2.025707 -0.126048 -0.307116 -0.786792 -1.077227 1.471207 -0.489092 -0.664874 -0.114622 -1.654091 -1.534850 0.814978 0.555222 1.204088
in 0.126940 -2.486507 -0.123278 0.325182 0.317781 -0.407601 -1.251500 1.385336 0.669411 -0.652974 -0.160569 0.641213 -0.496502 -0.614164 -0.050300 -0.816379 0.169286 -0.910787 0.540824 0.089060 -0.436878 -1.579109 0.161679 1.240922 0.341577 0.169289 -0.378757 -0.728571 0.318575 0.224085 -0.735044 -0.515406 0.269326 1.129220 0.271528 0.069739 -1.150169 -0.484324 -0.450217 -1.930761 -1.143126 0.991088 -0.202468 0.162562 -0.787151 -1.712504 -0.958882 -0.010009 1.377865 0.679242
a -0.636293 -1.780015 -0.205975 -0.226167 0.537776 0.316808 -1.540477 0.709543 0.292081 -0.400684 0.316035 0.123307 -1.408359 -0.963239 -0.599991 -0.269760 0.069285 -1.153129 -0.179280 0.389056 -0.176543 -0.594739 1.128695 1.380617 0.298233 1.165748 -0.487730 -0.221916 -0.583205 0.793980 -0.970843 -0.610995 1.283841 1.731959 -0.722524 -0.369871 -2.047674 -0.963242 -0.382235 -1.185899 -0.075315 1.758061 0.586840 0.469574 -0.444840 -1.725893 -1.128367 -0.700069 0.653328 0.707608
to -0.250555 -1.571289 -0.151352 0.360189 0.050997 0.432423 -1.649208 2.192173 0.208171 -0.370250 0.531175 1.079169 -0.302867 -0.138924 -0.672468 -0.043140 0.475100 -1.311565 1.162382 0.136956 0.121444 -0.368915 0.701875 1.507076 0.584423 -0.052198 -0.444950 0.485818 -0.276924 1.355291 -1.706942 -1.033253 0.816628 0.953603 -0.011319 -0.901004 -1.704253 -0.992674 -0.408597 -1.320471 -0.934705 1.225811 -0.368309 -0.384583 -1.928828 -0.833481 0.633109 0.403099 1.134515 -0.458988
zero -0.176620 -2.436586 0.234595 1.165436 -0.136261 -0.514761 -1.955879 1.443117 0.141891 0.703390 0.693677 -0.323468 -0.363760 -1.511623 -0.450857 -0.478888 1.144034 -0.632633 1.409901 0.187647 -0.689723 -0.629910 -0.037826 1.296280 -0.228871 -0.312189 0.355584 0.067153 0.461877 0.229703 -0.002912 -0.664140 0.909885 0.185812 -0.121564 -0.067962 -1.782530 -0.702011 -0.044009 -1.010391 -1.453694 2.027371 0.453038 -1.504768 -0.013063 -1.306346 -1.159703 0.254190 0.241262 0.310497
nine 0.190335 -2.107306 0.264023 1.146863 0.144723 -0.015531 -1.178324 0.877272 -0.123673 0.840201 0.293039 -0.101250 0.065075 -0.933073 0.230390 -0.126540 1.369535 -0.947836 1.090615 0.304794 -0.118949 -1.351744 0.649822 2.207194 -0.439919 -0.151973 0.605092 0.186622 0.783716 0.430268 -0.040650 -0.232381 1.034237 0.768544 -0.070645 0.042637 -2.040488 -0.113049 -0.610409 -1.145211 -1.328903 1.441326 -0.435420 -0.551386 -0.271045 -1.628216 -1.438566 0.860375 0.345489 1.232858
two 0.059540 -2.434850 0.418292 0.907508 -0.051382 0.037650 -1.601307 1.605633 -0.092087 0.327202 0.183476 -0.192874 -0.423809 -1.199728 -0.435481 -0.809752 1.383799 -0.388517 1.231888 0.341321 -0.478638 -0.500649 0.038191 1.506752 0.035871 -0.656817 0.751353 0.310840 0.152049 -0.111090 -0.194402 -0.585859 0.807877 0.717599 0.066451 -0.231253 -1.786644 -0.674793 -0.100639 -0.865414 -1.247148 2.070832 0.044702 -1.400052 0.168588 -1.569666 -1.636924 0.598370 0.332124 0.656909
is -0.517567 -2.586117 -0.344663 -0.097689 0.456145 -0.013580 -1.305546 1.470563 0.499863 -1.408037 0.105981 1.093919 -0.224351 -0.168118 -1.833892 0.232981 -0.324239 -1.209378 0.376482 -0.282779 -0.904570 -0.977299 -0.279670 0.905251 0.619914 0.495525 -0.918210 0.116093 0.049391 0.015068 -0.571783 -0.768098 0.401295 1.237539 -1.508897 0.355839 -1.675997 -1.142003 0.389020 -0.725796 -0.075596 1.772692 0.064049 0.020771 -0.226962 -1.343995 -0.832549 -0.303974 0.903368 0.656242
as 0.136129 -1.956534 -0.382567 -0.072724 0.451767 0.485614 -0.980412 1.559605 0.309092 -0.651097 0.275689 0.770264 -0.213776 0.569208 -0.476726 -0.035556 0.282109 -1.085203 0.062531 -0.419636 -0.401110 -0.943784 -0.240926 0.908315 -0.154305 0.552105 -0.521515 0.203370 -0.187084 0.357099 -0.400035 -0.801658 0.688730 1.331165 -0.214800 -0.097359 -1.765733 -0.044235 -0.269835 -1.176513 -0.657099 1.502846 0.268694 0.104292 -0.975692 -1.309691 -0.669013 -0.444926 0.962053 0.072555
eight 0.165914 -2.337268 -0.159926 1.059079 -0.247914 -0.573062 -1.624073 0.734917 -0.138118 0.424766 0.377978 0.188981 -0.228902 -0.726503 0.054460 0.061328 1.467711 -0.242208 0.969616 0.715211 -0.309406 -0.703862 0.042874 2.358505 -0.387620 -0.267298 1.055218 0.390057 -0.022775 0.277657 -0.164135 -0.355264 0.781219 0.895877 0.152428 -0.174994 -1.943557 -0.138626 -0.616398 -1.072428 -0.978430 1.398956 -0.232525 -0.940637 0.213866 -1.615868 -1.586867 0.722165 0.251375 0.975612
for -0.078032 -1.460537 0.050263 0.114681 0.898527 0.797056 -1.733481 1.407318 0.497314 0.045366 0.479846 0.754970 -0.291458 0.160991 -0.869235 0.146102 0.415502 -1.318593 0.910782 0.135361 -0.899305 -0.486386 0.198044 0.915708 -0.013301 0.586181 -0.025826 -0.114443 0.189995 0.328455 -1.133845 -0.977942 0.736073 1.033322 0.347626 -1.004295 -1.356273 -1.041883 -0.742281 -1.119085 -0.555214 1.146979 1.187756 -0.498145 -1.016211 -1.354056 -0.886193 -0.551532 0.575840 0.652728
s 0.514680 -2.038064 0.512991 0.276282 0.029344 0.428534 -1.100667 0.493488 0.629860 -0.585848 -0.020832 -0.035131 0.894370 -0.328951 -0.266924 -0.092480 -0.028880 -1.719298 0.037117 0.059433 -0.780606 -0.081938 0.410641 1.582624 -1.133812 0.651154 -1.014319 0.498892 -0.294119 0.841709 -0.421492 0.007711 0.882991 0.640750 -0.245453 -0.783514 -1.729923 -0.656694 0.409872 -1.508682 -0.742900 1.661304 0.048141 -1.284453 -1.350796 -1.693765 -0.432574 0.677993 0.322666 0.911821
five -0.024551 -2.431317 -0.142657 1.063894 -0.189220 -0.741750 -1.811269 1.316840 -0.036754 0.483557 0.474664 -0.024862 -0.335659 -1.176172 -0.175021 -0.305844 1.230878 -0.192721 1.562627 0.467863 -0.465604 -0.295033 -0.176881 1.848906 -0.248522 -0.501018 1.006886 0.430755 0.036159 0.173905 -0.331980 -0.541333 0.606887 0.720826 -0.085558 -0.158051 -1.945410 -0.250286 -0.193090 -0.804428 -0.954648 1.848539 0.197991 -1.148361 0.323147 -1.543436 -1.349458 0.772943 0.333314 0.711628
three 0.265925 -2.368011 0.149212 0.662815 -0.307056 -0.384089 -1.749644 1.411986 -0.220537 0.295378 0.188081 -0.071856 -0.409165 -1.043168 -0.337473 -0.581585 1.378986 -0.058791 1.326948 0.350706 -0.382833 -0.289945 -0.052819 1.917738 -0.041390 -0.667435 1.014030 0.550208 0.084848 0.126350 -0.163793 -0.491212 0.598712 1.107150 0.165083 -0.238415 -1.964847 -0.398472 -0.282872 -0.776688 -0.763825 1.692999 -0.061653 -1.070795 0.330151 -1.491449 -1.516118 0.623544 0.253379 0.560429
was -0.726284 -2.384907 0.057596 0.608125 0.415104 -0.039970 -1.684282 0.592789 0.712257 -0.431304 0.195301 -0.059997 -0.350244 0.089337 0.098403 0.470659 0.014711 -1.770735 0.283797 0.380307 -0.153194 -0.906708 -0.050798 0.624442 -0.412421 0.988267 0.809888 0.576650 -0.782156 0.204902 -0.600974 -0.666489 0.897298 0.274100 -0.318987 0.104565 -2.608833 0.236067 -0.280298 -1.880367 -0.724316 1.065294 0.098096 -0.056674 -1.022422 -0.666010 -1.085146 0.325468 0.919440 0.128318
by -0.034652 -2.144026 0.777102 0.273281 0.352580 0.135659 -1.576258 1.893183 -0.024779 -0.294020 0.098471 0.241071 -0.175817 -0.140362 -0.673471 -0.244414 0.286312 -1.529412 0.211793 -0.181401 -0.276155 -1.505913 -0.023596 0.716983 -0.243068 0.530383 0.463467 0.364074 -0.575566 -0.304580 -0.785857 0.072551 0.840556 0.617047 -0.754992 -0.226329 -1.516392 0.875013 -0.905555 -1.163441 -0.583072 2.149729 0.448985 0.159685 -1.050510 -0.844082 0.122341 -0.551457 -0.413419 0.344417
that -0.336875 -2.606521 0.017061 -0.161786 -0.749445 0.576232 -1.216855 1.112856 0.281492 -0.324294 -0.079857 0.633177 0.329483 -0.332543 -1.046343 0.078165 -0.710172 -1.055674 -0.117548 -0.497251 -0.847237 -0.986175 0.480839 0.760113 0.277042 0.455056 -0.260589 0.681115 -0.415700 1.131372 -0.751780 -0.396364 1.573691 1.670030 0.320077 -0.581192 -1.738810 -0.815135 -0.144379 -1.462757 -0.341144 1.228172 -0.106083 0.227565 -1.233079 -0.070299 -0.528495 0.011139 0.866931 0.070205
four 0.170960 -2.390487 -0.014836 0.829899 -0.122006 -0.279927 -1.770669 1.236683 -0.141204 0.423197 0.264711 -0.242091 -0.491286 -1.045331 -0.231924 -0.425487 1.481855 -0.068745 1.370011 0.479319 -0.318185 -0.383356 0.054452 1.867895 -0.137467 -0.558338 1.054680 0.759541 0.014410 -0.048905 -0.294439 -0.566026 0.602694 0.833990 0.228737 -0.136575 -1.914862 -0.334756 -0.489981 -0.943326 -0.866593 1.763549 -0.136311 -1.082550 0.404605 -1.404104 -1.524264 0.725622 0.326116 0.626155
six 0.135784 -2.514893 -0.007979 1.067308 -0.229045 -0.668901 -1.683236 0.886793 -0.025982 0.476036 0.416747 0.031507 -0.526396 -0.663532 -0.196370 -0.305794 1.394289 -0.138523 1.165705 0.633177 -0.211092 -0.254313 0.007421 1.988624 -0.226881 -0.330443 1.176592 0.499286 -0.077138 0.430598 -0.232834 -0.440624 0.584618 0.740342 -0.002429 -0.064969 -1.945996 -0.385846 -0.556436 -0.926599 -0.838502 1.526925 -0.179805 -1.192996 0.306337 -1.456442 -1.581958 0.755219 0.333924 0.794163
seven 0.100939 -2.231306 -0.087482 0.997654 -0.109873 -0.291841 -1.551113 0.984905 -0.185235 0.548218 0.208685 0.047075 -0.371636 -0.933548 0.149878 -0.141073 1.582564 -0.320720 1.202037 0.540661 -0.479934 -0.399163 0.089809 2.169872 -0.236782 -0.244136 1.131193 0.596643 0.182261 0.433168 -0.162558 -0.428898 0.626737 0.839748 -0.003811 0.036423 -2.174449 0.088366 -0.416719 -0.997291 -1.018626 1.388952 -0.266454 -0.842541 0.260886 -1.475401 -1.325052 0.831485 0.124357 0.793561
with -0.022295 -1.867670 0.377731 -0.182573 -0.077730 0.811361 -1.013376 0.933730 0.529187 -0.441882 -0.080945 -0.287055 -0.710637 -0.139460 -0.480116 -0.955047 0.543692 -0.386498 0.504295 -0.096050 -0.433007 -0.125090 0.383311 0.997043 -0.108423 0.522101 -0.168339 -0.489616 -0.514766 0.318680 -1.047381 -0.332841 0.553735 1.336689 -0.746264 -0.974991 -1.324176 -0.550677 -1.029789 -1.979583 -0.629928 1.724294 0.066324 0.071492 -0.767884 -1.591161 -0.320260 -0.260132 1.384389 0.186557
on -0.688530 -1.419816 0.216523 0.394439 -0.594423 0.650534 -1.204472 1.210190 0.215274 -0.871117 0.012919 0.579757 0.576971 -0.783737 -1.037073 0.179720 0.603985 -1.483241 0.675248 0.641506 -0.889780 -0.396661 0.866396 0.990188 0.108658 1.056696 0.338160 -0.402333 0.200412 0.318332 -0.470341 0.096955 0.282871 1.029357 0.700143 -0.604769 -0.915667 -0.583630 -1.056886 -1.952215 -1.540093 1.438563 -0.109388 -0.171467 -0.403324 -1.614938 -0.748635 -0.090895 0.580605 0.384763
are 0.271939 -1.697121 0.262462 -0.749155 0.186203 0.295827 -1.193950 2.140228 -0.214956 -1.175512 -0.029920 1.131926 -0.315887 0.404209 -1.158061 -1.282311 0.049632 -0.512273 0.981352 -0.490317 -0.706192 -0.910226 -0.503365 0.221485 0.304977 -0.024325 -0.502187 -0.270053 0.619636 0.070594 -1.566051 -0.539338 0.667760 1.345657 -0.262634 -0.481253 -0.551820 -0.349678 -0.284948 -1.349234 -1.105176 2.079922 0.566524 0.013052 0.229394 -0.506894 -1.087620 -0.766018 1.248026 -0.294611
it -0.752753 -2.447469 -0.216958 0.239091 -0.013242 0.386220 -1.097310 1.022539 0.431867 -0.686895 0.422702 0.957420 -0.042074 -0.081358 -1.338281 0.314473 -0.512343 -1.357463 0.390204 -0.263688 -0.606454 -0.471051 0.353257 0.841060 0.535839 0.440524 -0.265247 0.561385 -0.386564 0.853687 -0.665252 -0.629603 0.613412 1.123979 -0.349003 -0.134935 -1.818171 -0.655976 -0.156338 -1.387282 -0.666169 0.978050 0.116095 0.087294 -0.764869 -0.607315 -0.527782 -0.253651 1.213815 -0.180552
from -0.408677 -2.478446 0.163846 0.241111 0.304704 0.312731 -1.105430 1.784094 0.109206 0.095186 0.592181 0.550636 -0.409312 -0.427389 -0.959370 -0.484531 0.176197 -0.627405 0.918521 0.066870 -0.282499 -1.071024 -0.192342 0.512867 0.011362 0.867272 -0.307048 0.009308 -0.419274 0.714227 -0.467674 0.318800 -0.157295 0.769703 0.851277 -0.674322 -1.112458 -0.431549 -0.578044 -1.716476 -0.910585 0.714997 -0.678615 -0.468964 -0.208217 -1.605535 0.364098 -0.313942 0.448047 0.000358
or 0.044884 -1.914156 -0.335424 -0.660340 0.879630 0.156849 -0.590786 1.392869 -0.604054 -0.570016 0.038816 1.125210 -0.877868 0.615098 -1.444073 0.289080 0.612614 -0.583541 1.018161 0.376858 -0.297779 -0.885662 -0.180889 0.487230 0.564340 0.607227 -0.097171 -0.425082 0.164845 0.326721 -0.573309 0.054429 0.519501 2.104849 -0.058661 -0.820698 -1.506199 -0.047016 -0.458583 -0.728229 -0.428452 1.419216 0.137649 0.028653 -0.309998 -1.368593 -0.237827 -0.671560 0.832304 0.101010
his 0.210798 -1.853099 0.490061 0.484056 0.177031 0.907610 -1.297102 -0.022008 0.509120 -0.863780 -0.577785 0.640866 -0.512774 0.434809 0.362451 -0.156496 -0.368987 -1.294953 0.594652 0.551176 -0.242365 -0.021284 0.003974 0.496856 -1.235858 1.041786 0.198725 0.615926 -0.821081 0.690241 -1.225018 0.094897 0.884220 1.001275 0.871803 -1.393475 -2.464673 0.120077 -0.031413 -2.029026 -0.885302 0.241107 0.703156 0.029073 -1.298511 -1.992571 0.171272 1.064386 0.198306 0.785829
an -0.072031 -1.934474 0.003984 0.277836 0.693327 0.133721 -1.905242 0.765328 0.476703 -0.120092 -0.286857 0.575154 -0.377482 0.840817 -1.195335 0.888785 0.030809 -1.112844 -0.573347 0.837176 -1.467586 -0.663006 -0.824014 0.619219 0.226317 0.725936 0.757703 -0.211627 0.099521 0.681940 -0.237220 -0.708064 0.195333 1.058706 -0.372835 -0.183418 -2.599682 -1.774797 -0.041802 -1.014164 -0.494821 0.993690 -0.094703 -0.381140 -0.286970 -0.872052 0.495751 0.599747 0.331657 0.230563
be -0.325914 -2.182645 0.166876 -0.056736 0.318347 0.421351 -1.173774 1.592756 0.017907 -0.957163 -0.002516 1.294287 -0.294513 0.267583 -1.809278 0.239605 -0.006752 -1.429244 0.683734 -0.386444 -0.184920 -1.013226 0.223548 -0.329989 0.476563 -0.007875 0.301954 0.453566 -0.501443 0.123731 -1.219028 -0.937143 1.129698 1.357490 -0.654295 -0.193272 -1.656848 -0.337883 0.056694 -0.993046 -1.001972 1.463108 0.348694 0.571143 -0.625954 -0.230313 -0.679773 -0.458885 1.052299 -0.327680
this -0.684195 -2.542963 -0.006321 0.091290 0.150334 0.377811 -1.271873 1.378844 0.476260 -0.446104 0.128597 0.727998 0.189404 -0.181204 -1.273339 0.244521 -0.375928 -1.195998 -0.203461 0.218454 -0.814419 -0.206286 0.038086 1.068127 0.515734 0.318503 -0.230326 0.218935 -0.656681 0.466096 -0.683071 -0.377887 0.958216 1.484358 -0.183664 -0.105464 -1.566551 -1.011056 0.175609 -1.329627 -0.313144 0.954927 0.172415 0.219787 -1.001121 -0.628209 -0.260013 -0.384670 0.797507 0.107938
which -0.174409 -2.205774 -0.008626 0.071991 0.045199 -0.024197 -1.078577 1.343094 0.399398 -0.750784 0.248059 0.302782 -0.164432 -0.400620 -1.067206 -0.175801 -0.269747 -1.074933 0.133630 0.143749 -0.580861 -0.828604 0.395074 0.905645 0.646545 0.515793 -0.261579 0.444190 -0.388676 0.625327 -0.761680 -0.209371 0.602793 1.278578 -0.060697 0.088580 -1.234818 -0.541887 -0.314212 -1.802902 -0.116051 1.035206 -0.179769 0.159606 -0.529015 -0.925309 -0.502055 -0.574313 0.866494 0.185112
at -0.335337 -1.984670 -0.003445 0.065799 -0.145028 -0.325809 -1.325552 1.231620 1.159451 -0.359825 -0.134236 1.133857 -0.779655 -1.057287 -0.635025 0.045261 0.104069 -1.208333 0.503309 0.195882 -0.560670 -0.296543 0.026040 0.583265 0.230229 1.065950 0.372427 -0.295657 -0.487344 0.680764 -0.334137 -0.063552 0.003600 0.657229 0.615709 -0.397220 -0.855427 -0.707425 0.097951 -1.998891 -1.783093 0.991562 0.831478 -0.340803 0.143708 -0.701050 -0.582178 1.457837 0.770327 0.057479
he -0.190344 -2.270342 -0.151842 0.251469 -0.623778 0.622923 -1.211551 0.025698 0.838733 -0.605980 -0.448709 0.452716 -0.676129 0.228156 0.242502 0.336656 -0.675494 -1.027296 0.695320 -0.097941 0.166112 -1.275598 0.270656 0.454318 -0.136960 1.021196 0.562455 0.747180 -0.826641 1.114756 -0.981217 -0.199730 0.781656 0.769131 0.232957 -0.877065 -2.347740 -0.126043 -0.263351 -1.818513 -1.095400 0.227754 0.479875 0.386650 -0.758602 -1.108499 -0.333263 1.084720 0.672668 0.670109
also 0.493408 -1.960872 -0.139585 -0.336564 0.136744 0.058322 -1.234199 1.605080 0.646102 -0.453544 0.100543 0.237414 0.343008 0.105980 -0.613815 -0.150996 -0.124408 -1.082094 0.430188 -0.564807 -0.255406 -0.438938 -0.035877 1.315830 -0.194836 0.634959 -0.498536 -0.030567 0.164029 0.260109 -0.455422 -0.346257 0.386066 0.842939 -0.375447 -0.035046 -1.117643 -0.730978 -0.310090 -1.355174 -0.476328 1.474010 -0.128859 -0.104988 -0.685578 -0.961051 -0.463521 -0.595585 0.961843 0.438497
not -0.250399 -2.374716 -0.518761 0.011322 0.135285 0.643066 -0.894583 1.389766 -0.410045 -0.579527 -0.156320 1.543052 0.102165 0.382866 -1.106948 0.316845 -0.216968 -1.025703 0.732748 -0.744996 -0.576902 -0.798532 0.487810 0.393506 0.254095 0.090362 0.184754 0.540366 0.011841 0.875819 -1.584386 -0.865496 1.048644 1.650676 -0.145914 -0.847155 -1.366988 -0.662912 0.018773 -1.064398 -0.629677 1.091895 0.039323 0.348993 -0.821960 0.195762 -0.492859 -0.292847 1.247798 -0.420593
have 0.253696 -2.276581 0.726954 -0.371011 -0.184415 -0.018469 -1.159161 1.634415 0.187737 -0.026161 0.037439 0.512583 0.269160 0.178612 -0.536573 -0.595506 -0.734012 -0.850049 0.755101 -0.759648 -0.195176 -0.592118 0.303511 0.119628 -0.102187 0.372433 -0.424291 -0.087147 0.349675 0.825512 -1.181074 -0.240223 1.252040 1.296656 0.109328 -0.666016 -1.467874 -0.270614 0.055131 -1.609178 -0.928258 1.563284 0.079861 -0.100426 -0.466889 0.198129 -0.818687 -0.734489 1.256186 -0.588326
were -0.188991 -1.873934 0.351894 -0.252959 0.391999 0.117778 -1.421160 1.529264 0.051005 -0.387186 -0.042119 0.050944 -0.463437 0.642368 0.219072 -1.027575 0.074940 -1.196377 0.805356 0.190918 -0.263238 -1.308175 -0.145052 0.105913 -0.615082 0.558734 0.874514 0.474491 -0.210626 0.031096 -1.422016 -0.465101 0.831722 0.518160 0.649673 -0.619247 -1.160454 0.859119 -0.652024 -2.338947 -1.839286 1.273008 0.448095 -0.064684 -0.180832 0.279103 -1.044148 -0.631643 0.835765 -0.914451
has -0.412551 -2.524241 0.582666 0.280758 -0.003126 -0.510879 -1.083451 1.039530 0.603800 -0.237747 0.133174 0.044778 0.515409 -0.096078 -0.600241 0.034074 -0.910862 -1.513292 0.613713 -0.662609 -0.441534 -0.611050 0.589216 0.223230 -0.094847 0.440524 -0.758681 -0.255854 0.286424 0.305547 -0.488260 -0.243658 0.808162 0.583342 -0.826891 -0.045063 -2.025564 -1.079547 0.319407 -1.661843 -0.163636 1.479273 -0.080065 -0.339591 -0.267307 -0.631345 -0.526604 -0.430292 1.426606 0.169064
but -0.447595 -2.402453 -0.268940 0.024310 0.277092 0.300177 -0.676761 0.686444 -0.055348 -0.348714 0.160394 0.994325 -0.199981 0.221817 -0.415785 -0.003250 -0.151933 -0.936448 0.529012 -0.048195 -0.550083 -0.330342 0.019833 0.611460 0.257400 0.434662 0.081905 0.472695 -0.413654 0.687052 -1.152961 -0.461167 0.697094 1.197194 -0.126950 -0.597956 -1.628525 -0.266894 -0.014349 -1.719536 -0.776650 0.920182 0.305293 0.333611 -0.617896 -0.405309 -0.457367 0.071747 1.282418 -0.255685
other 0.420909 -1.795337 -0.030150 -0.651913 0.332671 0.492338 -0.977855 2.096199 -0.091815 -0.588843 0.269931 0.869074 0.091007 0.658583 -0.417997 -0.728945 0.254752 -0.737077 0.820666 -0.345878 -0.457535 -0.356863 -0.325308 0.946568 -0.215416 0.368104 -0.345135 -0.542877 0.593301 0.577730 -0.868804 -0.638637 0.493923 1.323724 0.702385 -0.902461 -0.750328 -0.351665 -0.638823 -1.466224 -0.569932 1.519801 -0.091880 -0.171917 -0.097163 -0.763847 -0.083610 -0.821386 0.830028 -0.114790
their -0.404965 -1.787264 0.713473 0.193446 0.943110 0.624255 -0.554147 1.569599 0.137114 -0.441957 0.098928 0.692196 -0.623469 0.447201 -0.313377 -0.712523 0.513681 -1.103022 0.961505 0.083309 -0.439129 0.092774 0.114056 0.066043 -0.558027 0.519838 -0.467085 0.262014 0.559767 0.918047 -1.276907 -0.399259 0.912311 1.421425 1.119959 -1.695149 -0.835252 -0.584571 -0.197108 -1.939324 -1.044979 0.752317 0.211471 -0.274505 -1.030122 -0.629487 0.471779 -0.180418 0.691297 -0.331579
its -0.684472 -2.618871 0.619726 0.725092 0.835244 -0.050552 -0.746827 1.383957 0.324221 -0.410034 0.154062 0.371130 -0.008240 0.270265 -0.920598 -0.233591 0.183728 -1.458308 0.006674 0.681348 -1.137967 0.316069 0.265239 0.200793 -0.289435 0.519524 -1.346373 0.342543 0.379127 0.360284 -0.801726 -0.563864 0.288815 0.697451 0.372947 -0.268755 -1.304260 -0.891841 -0.044324 -1.953417 0.004807 0.667110 -0.223881 -0.919759 -0.210573 -0.670034 0.358772 -0.162216 1.169997 -0.260738
first -0.400834 -2.071578 0.258867 0.872032 1.104273 0.091492 -1.493814 1.568663 0.559839 -0.222318 -0.273163 -0.124071 -0.167374 -0.429003 -0.179892 -0.208776 -0.025290 -1.366657 0.035924 0.089982 0.483199 -0.278447 0.030458 1.037054 -0.116753 0.965840 0.691889 0.223426 -0.145883 0.050131 -1.076117 -0.610865 0.853350 1.254444 0.220647 0.151122 -1.391045 -0.615772 -0.245585 -1.237778 -0.602580 0.339400 -0.013156 -0.131024 -0.465140 -0.921072 -1.264093 0.136609 -0.178678 0.339840
they -0.543768 -2.068563 0.097718 -0.311227 0.053915 0.557558 -0.595712 1.369742 -0.078973 -0.497419 0.049769 1.027106 -0.340821 0.107579 -0.395736 -0.144761 -0.138432 -0.948691 0.957113 -0.583034 0.100734 -0.897756 0.247351 0.342250 0.544974 0.351836 0.091162 0.558807 0.041796 1.316350 -1.201210 -0.361757 0.880469 1.437095 0.489258 -1.087688 -0.874533 -0.177873 -0.463437 -1.780565 -1.454522 0.702264 0.259182 0.372811 -0.631060 0.061939 -0.546337 -0.189692 1.051775 -0.872387
some 0.196238 -2.028232 -0.087129 -0.618169 -0.259316 0.339300 -1.211472 1.605257 0.019443 -0.205955 0.092331 0.946319 0.147065 0.379031 -0.567643 -0.406365 -0.457976 -0.694370 0.443746 -0.460898 -0.544744 -0.298026 -0.102545 0.765607 -0.211766 0.807009 -0.326253 -0.392274 0.213538 0.765251 -1.021202 -0.446963 0.729143 1.509417 0.735492 -0.541891 -1.048679 -0.517914 -0.101383 -1.323469 -0.623847 1.377715 0.319611 0.108672 -0.489171 0.054272 -0.207789 -0.987671 1.180915 -0.296928
had -0.333253 -2.552148 0.450611 -0.008797 -0.249218 -0.163674 -1.131842 0.621313 0.610078 0.055484 0.012884 -0.406277 0.134928 0.103815 0.582093 0.054159 -0.315283 -1.330911 0.492096 -0.022250 0.258013 -0.563780 0.420315 0.216511 -0.679109 0.742489 0.532692 0.509214 -0.820472 0.757078 -0.901837 -0.212575 0.886941 0.804391 0.209905 -0.835643 -2.050553 0.305492 -0.545743 -2.151095 -0.942402 0.667495 0.058948 -0.309570 -0.787168 -0.017530 -0.457400 0.095790 0.827230 -0.400492
all -0.245062 -2.212687 -0.153602 -0.185894 0.208698 0.763160 -0.793077 1.660448 -0.085389 -0.705443 -0.344209 0.560996 -0.178499 0.230507 -0.937867 -0.351608 -0.103666 -0.736761 0.558774 -0.454758 -0.609876 -0.438952 0.282284 0.663763 -0.057095 -0.033830 0.269424 0.222350 0.628629 0.435538 -1.171554 -0.628077 0.311512 1.484994 0.827763 -1.040734 -0.842465 -0.513873 -0.312142 -1.332553 -0.850545 1.058749 0.381909 -0.240932 0.166324 -0.200606 -0.501785 -0.361210 0.348526 -0.018621
more -0.495846 -1.617046 -0.212389 0.318327 0.521513 0.653424 -1.530557 0.681963 0.164213 -0.546126 0.317529 1.235814 -0.567642 0.631430 -0.551826 -0.254486 -0.163089 -0.632345 0.340189 0.183879 -0.444241 0.099613 -0.060732 0.829201 0.024025 -0.237532 -0.621904 -0.208778 -0.524824 0.219827 -0.653198 -0.945665 1.178197 1.004609 -0.186607 -0.503626 -1.688131 -0.819562 -0.127742 -1.638037 -1.179781 1.448764 0.935031 0.431866 0.245585 -0.638907 0.195798 -0.996671 1.035965 -0.794474
most -0.028286 -1.938606 0.020503 -0.071056 0.448696 0.228496 -1.513678 1.158440 0.012338 -0.545991 0.185063 1.083327 -0.047140 0.621425 0.125053 -0.720140 -0.429303 -0.904303 0.325954 -0.258197 -0.576242 -0.011562 -0.692652 0.941867 -0.248389 0.522467 -0.726222 -0.067680 0.439343 0.042348 -0.606641 -1.173187 0.678075 0.891477 0.244294 -0.142661 -1.297508 -0.348619 -0.176980 -1.383865 -0.938445 1.392556 0.773161 0.226081 0.214636 -0.148806 -0.504247 -0.977191 0.888269 -0.159002
can 0.219603 -1.724443 0.265725 -0.675100 0.191210 0.332184 -0.701731 1.631716 0.033829 -0.390294 0.349351 1.600180 -0.217372 -0.165720 -2.233241 0.136250 0.406849 -0.993831 0.809200 -0.339798 0.136412 -0.624072 0.250658 0.279918 1.101490 -0.317338 -0.356343 0.021206 0.086533 0.366848 -0.806591 -0.671455 1.213934 1.588907 -0.595748 -0.559515 -0.668326 -0.865498 -0.129620 -0.699523 -1.150054 1.252555 0.386408 0.344200 -0.460456 -0.315972 -0.050925 -0.708074 1.048288 -0.576238
been -0.346869 -2.263674 0.648766 0.036981 0.090185 -0.272980 -1.530472 1.366439 0.280983 -0.400184 0.076958 0.443219 0.389744 0.351278 -0.343150 -0.198935 -0.905318 -1.789174 0.760986 -0.654730 -0.124644 -0.983882 -0.025774 -0.359736 -0.315158 0.649872 0.389451 -0.032249 -0.107291 -0.168895 -0.805850 -0.234011 1.098718 0.363512 -0.423144 0.157329 -2.099761 0.053769 -0.010512 -1.604839 -0.959690 1.392295 0.171284 0.219290 -0.506438 0.020114 -0.734028 -0.616716 1.231997 -0.534356
such 0.817611 -1.523937 0.008695 -0.599260 0.218306 0.936228 -0.852615 1.748852 -0.046090 -0.221403 0.342256 1.072945 0.067585 0.858457 -0.688034 -0.345382 0.164302 -0.912187 0.064255 -0.102335 -0.712545 -0.541624 0.147087 0.863239 -0.088205 0.607008 -0.435794 -0.455743 0.407763 0.514742 -0.410508 -0.681985 1.014075 1.510797 0.463555 -0.349172 -0.718057 -0.080700 -0.688853 -1.096196 -0.663564 1.264905 0.448371 0.103187 -0.308390 -0.700980 -0.189795 -1.203946 0.903458 -0.169505
many 0.384804 -1.721003 0.088270 -0.487263 -0.229023 0.295938 -1.256449 1.532941 0.216570 -0.366799 0.135106 0.830939 0.016341 0.570851 -0.099026 -0.874314 -0.456821 -1.100006 0.197532 -0.454694 -0.283633 -0.481347 -0.355671 1.109320 -0.602703 0.626558 -0.471582 -0.358330 0.571998 0.678900 -0.914913 -0.374283 0.699368 1.130881 1.053004 -0.670403 -0.882621 -0.424189 -0.246195 -1.464165 -1.170030 1.314599 0.599613 0.081874 -0.261784 0.173492 -0.073953 -1.030236 1.117040 -0.504594
who -0.249681 -2.122987 -0.181859 -0.347781 -0.614969 -0.016878 -0.802585 0.800871 0.595419 -0.490902 -0.055278 -0.139749 -0.476069 0.509318 0.771761 0.484826 -0.027368 -0.886333 0.814436 -1.133667 0.431702 -1.022222 -0.132583 0.855530 -0.755734 0.990914 0.678528 1.218722 -0.072564 1.376172 -0.597098 -0.754946 0.700681 1.319594 -0.291069 -1.423159 -1.526508 0.055703 -0.144825 -1.131110 -0.981331 1.046288 0.254779 0.569631 -0.893530 -0.162524 0.378183 0.084294 -0.311976 0.322698
new -0.088385 -1.575658 0.090419 0.846454 0.592963 0.434973 -1.382463 1.390141 0.237155 -0.703885 0.698354 0.413181 -0.418779 -0.192776 0.265347 -0.291095 1.129369 -1.823403 -0.122180 -0.037509 0.388684 -0.808669 0.339456 1.753589 -0.085211 0.677660 -0.574857 -0.784843 -0.533246 1.221172 -0.472212 -0.531125 1.001366 0.397688 0.783378 0.178871 -0.830488 -0.547583 0.395073 -1.473289 -0.782906 0.553182 -0.094906 -0.861326 -0.171829 -0.899487 -0.355544 0.146004 0.301455 -0.137776
used 0.452686 -1.130895 -0.327063 -0.283512 0.868575 0.264472 -1.497692 1.838636 0.491563 -0.271148 0.199994 0.831526 0.324464 0.476385 -1.278932 0.101575 0.310811 -0.679062 1.154401 -0.023064 0.095276 -0.409682 -0.424049 0.490356 0.558409 0.738165 -0.286162 0.068815 -0.719536 0.118532 -0.368021 -0.674916 0.591893 1.101922 -0.376180 -0.123306 -0.593272 -0.407051 -0.487722 -1.291720 -0.518939 1.115729 0.316554 0.262918 -0.962761 -1.019416 -1.140973 -1.390174 1.204554 -0.510673
there -0.074279 -2.254109 -0.132713 -0.399703 -0.175677 0.050915 -0.849304 1.264891 0.373674 -0.332894 -0.284138 1.166251 0.049166 -0.432971 -0.396153 -0.253329 -0.464718 -0.771404 0.644861 -0.274671 -0.810395 -0.339791 0.063401 0.844357 0.180470 0.248085 -0.059847 -0.321775 0.306376 0.732711 -0.938925 -0.319849 0.302872 1.592906 0.234369 -0.415876 -1.493484 -0.616742 0.118079 -1.163362 -0.556283 0.890130 0.332494 0.001762 0.067655 -0.052382 -1.116705 -0.207171 1.121282 -0.165405
after -0.376318 -2.616147 -0.145781 0.266268 0.404198 0.449536 -0.555219 0.686858 0.267942 0.154720 0.138589 -0.204503 -0.065056 -0.747432 0.449272 0.144876 -0.115191 -1.272054 0.551055 0.390476 0.470239 -0.545642 -0.391804 0.653844 -0.064547 0.830520 0.779764 -0.132597 -0.577833 -0.142061 -1.063003 0.386209 0.154626 0.952898 0.527260 -0.165980 -1.669497 -0.398934 -0.342688 -1.448069 -1.331946 0.361206 0.389160 -0.181696 -0.680650 -0.965598 -0.169894 0.556510 0.315253 0.109705
when -0.453250 -2.175865 0.017408 -0.168421 0.130513 0.540812 -0.428758 0.834539 0.441923 -0.040686 0.145610 0.373476 0.059173 -0.455210 -0.606240 0.324289 0.083236 -1.218939 0.569772 -0.066733 0.194244 -0.676399 -0.191899 0.347952 0.571739 0.563637 0.373152 0.229943 -0.910017 0.448963 -0.645272 -0.006199 0.502987 1.272716 -0.114783 -0.531376 -1.357077 -0.408036 -0.339943 -1.344919 -1.195396 0.638539 0.217190 0.249289 -0.805266 -0.863182 -0.161741 0.323094 0.581815 -0.228093
into -0.129622 -2.398343 0.467341 0.008023 0.612607 0.265659 -0.165738 1.112280 0.136272 -0.495149 0.132093 0.015568 -1.268937 0.216988 -1.320750 -0.840134 0.129420 -0.852738 0.845227 0.270660 0.381408 -1.123318 0.357513 1.013120 0.617989 0.271534 0.129292 -0.084701 -0.670710 0.484985 -0.700587 0.811346 0.134969 0.804023 0.202745 0.062695 -1.362570 -0.472628 -0.626615 -2.094648 -0.846813 0.267596 -0.793503 -0.031403 0.220339 -0.981306 0.545697 -0.476337 0.104983 -0.672131
american 0.019387 -1.711387 0.208283 0.646736 -0.168344 -0.256027 -1.366826 1.508512 0.227431 1.252655 0.585457 0.042741 0.667452 0.812858 0.839806 -0.532096 0.976796 -0.367036 0.340350 -0.244973 0.366428 -0.971129 0.490387 1.782849 -1.215715 2.138438 -0.323595 -0.472044 1.034837 1.157585 0.256784 -0.767647 0.541145 1.079289 -0.853249 -0.897584 -1.261312 -0.126780 -0.690300 0.087577 -1.136883 1.047381 -1.014535 -0.322084 0.160766 -0.695221 -0.297997 0.557122 -0.450527 1.406221
time -0.501203 -2.016827 -0.416777 0.520743 0.258128 0.464500 -0.808672 1.345668 0.933584 0.179866 -0.413405 0.548339 -0.065555 -0.267994 -0.697726 0.118190 -0.198826 -1.046232 -0.146859 -0.088834 0.114021 -0.072806 0.034810 0.887650 0.211404 0.105980 0.038109 0.101922 -0.735502 0.229855 -1.041054 -0.184851 1.004025 1.333946 0.222839 -0.382449 -1.792289 -0.493068 -0.319953 -1.091905 -1.291061 0.698568 0.652366 -0.474834 -0.074732 -0.397186 -0.372412 0.000817 -0.036648 0.056780
these 0.550121 -1.711983 0.505191 -0.423168 -0.250920 0.532015 -1.014846 1.919396 0.008254 -0.502559 -0.043297 1.013633 0.281569 0.313479 -0.586876 -0.957308 0.278933 -0.672886 0.518612 0.016725 -0.596371 -0.351760 0.049343 0.383023 0.044672 0.012544 -0.375959 -0.233155 0.113066 0.555722 -1.239009 -0.237613 0.899242 1.450909 1.024833 -0.532430 -0.624179 0.073160 -0.370146 -1.703442 -0.837828 1.218613 0.309282 0.040376 -0.314732 -0.172277 -0.397802 -1.013285 1.070438 -0.821327
only -0.309296 -2.297022 -0.171308 -0.002051 0.561114 0.114111 -0.881047 0.906132 0.032913 -0.631270 -0.077804 0.635280 -0.162719 -0.058726 -0.718461 0.063066 -0.356032 -0.739208 0.441775 -0.442949 -0.415365 -0.212597 -0.027499 0.418975 0.247774 0.140342 0.229820 0.323530 -0.158552 0.466329 -1.398510 -0.700571 0.488067 1.528161 0.054059 -0.521681 -1.493941 -0.599956 -0.205622 -1.290607 -0.685753 0.970853 0.329449 -0.233512 0.152948 -0.333449 -0.638250 -0.188554 0.635521 -0.014357
see 0.702099 -1.968069 -0.792739 -0.817917 0.414339 0.278575 -0.930802 1.597091 0.571602 0.077309 -0.055314 0.783889 0.668123 -0.083252 -0.987951 0.412609 0.469974 -0.642516 0.208986 -0.125083 -0.391888 -0.186243 0.250580 2.277066 -0.425310 0.022919 -0.321930 -0.342955 0.184549 0.009528 -0.142259 0.346744 0.066247 0.944231 0.110605 0.065531 -0.710638 -1.161172 0.346789 -0.755683 -0.197586 0.992110 -0.151739 -0.066945 -0.361039 -0.945308 -0.709416 -0.419489 0.267860 0.402276
may 0.281046 -1.648124 -0.204520 -0.322907 -0.098751 -0.069122 -0.693309 1.686542 -0.255237 -0.389473 0.443180 0.996364 0.388662 -0.047140 -0.784220 0.385765 0.584487 -0.963464 0.970423 -0.122893 0.102067 -0.438551 -0.093293 0.259123 0.642762 0.304523 0.192335 -0.457760 0.252726 0.518645 -1.160428 -0.323237 0.719510 1.860873 0.332009 -0.350787 -0.858871 -0.704878 -0.134835 -0.486957 -0.834239 1.106784 0.071805 0.273836 -0.585516 -0.453329 -0.105306 -0.189422 1.141645 0.014784
than -0.522660 -1.988882 -0.568318 0.462190 0.570227 0.080776 -1.147025 0.932844 0.184871 -0.295293 0.663083 0.978026 -0.477484 0.307637 -0.765913 0.135739 -0.136649 0.012854 0.933936 0.290134 -0.689980 0.196320 -0.149811 0.521299 0.241087 -0.310910 -0.850063 0.159864 -0.577453 0.622075 -0.511295 -1.047697 0.973823 1.362269 -0.073811 -0.625238 -1.600516 -0.436145 0.056590 -1.125339 -1.166306 1.272259 1.037249 -0.181811 0.334705 -0.780297 -0.021125 -0.781850 0.730088 -0.709785
world -0.516211 -1.872087 -0.123466 0.439391 1.323030 0.295250 -1.127902 1.692067 0.846977 -0.117614 -0.155870 0.411425 -0.313231 -0.082546 0.082534 -0.298713 -0.876744 -1.578719 0.784275 -0.328757 -0.541737 -0.563647 0.914857 1.686851 -0.656214 0.171968 -0.184024 -0.154452 0.943387 -0.535688 0.197011 -0.010867 0.201821 0.720492 -0.102849 -0.643186 -1.223184 -0.538187 0.042272 -1.140119 -1.067602 0.601102 0.026377 -0.148137 0.261474 -0.766025 -0.598274 -0.092760 0.211207 -0.304447
i 0.747996 -2.596209 0.171364 -0.374699 0.392285 1.589683 -1.164962 0.396562 0.916640 0.013527 -0.331577 0.707168 -0.239039 -0.490057 -0.694314 0.691947 0.114476 -0.710363 0.516949 -0.802513 0.100674 -0.643527 0.920155 1.388762 0.038594 -0.259429 1.139405 1.218401 -0.982740 1.063168 -0.508248 0.480856 0.005514 1.598326 -0.432525 -0.972161 -0.925583 0.178571 0.904519 0.589136 -1.077265 0.249235 0.776547 -0.511344 0.394406 -0.802702 -0.609553 0.107237 0.716329 -0.283485
b 0.740867 -2.860774 0.316307 -0.498961 -0.628280 -0.003575 -1.207111 1.031964 -0.208840 1.195686 -0.213007 0.302915 -0.727144 -0.148480 -0.343959 -0.109954 1.763272 -0.508344 -0.962427 0.705186 0.049326 -1.088655 0.020120 1.466437 0.063655 0.873539 1.010674 1.114174 -0.001404 0.231677 -0.173907 -1.528420 -0.200896 1.125237 -1.299638 -1.206643 -0.703384 -0.150831 -0.072021 0.956475 -0.882637 0.746955 -0.467095 -0.611986 0.950174 -1.086488 -1.185304 0.227705 0.591502 1.841467
would -0.351586 -2.013258 -0.184162 0.060554 0.239455 0.639671 -0.681060 1.011216 0.089726 0.140293 0.276399 0.732373 0.010271 -0.168699 -0.504871 0.354995 0.108906 -1.127091 0.577710 -0.064734 0.158702 -0.405979 0.754235 0.719725 0.199269 0.101039 -0.092893 0.739083 -0.301663 1.394236 -1.191437 -0.800022 1.057613 1.425892 0.257774 -0.629842 -1.450162 -0.357864 -0.242016 -1.204471 -1.208817 0.616266 0.312159 -0.096193 -1.028258 0.188689 -0.083191 0.334265 0.653374 -0.900423
d 0.985478 -2.751279 0.623781 0.484806 -0.333790 -0.381488 -2.054494 0.706736 -0.176928 1.025282 -0.351444 0.846888 -0.401938 0.159074 -0.099488 0.419513 1.509099 -0.388925 -0.506030 0.769120 0.903304 -1.180614 0.584934 1.446179 0.233106 0.941432 0.650849 0.958209 0.087328 0.403565 -0.073348 -0.579824 -0.185131 1.127088 -1.192483 -0.922361 -0.436405 0.097702 -0.431165 0.625226 -0.579950 0.310911 -0.576641 -0.553406 1.279880 -1.338278 -0.443091 0.443566 0.925946 1.780141
no -0.226511 -2.434198 0.028912 -0.336351 1.111339 0.594721 -0.788120 0.145542 -0.245786 0.189273 -0.757568 1.261553 0.045172 -0.127134 -0.708165 0.625378 -0.031808 -0.599624 0.915271 -0.072128 -0.931917 0.355384 0.601839 0.475024 0.021536 0.197959 0.737244 -0.494917 -0.025112 0.863535 -0.747356 -0.523975 0.492179 1.698905 0.252219 -0.938514 -1.777635 -0.323815 0.020269 -0.913303 -0.061435 0.473436 0.025405 -0.281030 -0.183381 -0.308480 -1.144502 -0.027658 0.957710 0.348972
however -0.150621 -2.387725 -0.116474 0.153078 0.173530 0.027058 -0.698388 1.183516 0.100102 -0.023316 0.053323 0.819379 0.468161 0.144607 -0.124965 0.242006 -0.361543 -0.833145 0.242795 -0.026951 -0.316660 -0.352104 -0.001234 0.391426 0.118438 0.279128 -0.062414 0.030170 -0.198786 0.507153 -0.690781 -0.485568 0.747298 1.101964 0.101634 -0.314377 -1.326627 -0.420210 -0.171023 -1.501598 -0.541824 0.991705 0.341712 -0.050969 -0.502975 -0.043051 -0.193347 -0.198825 1.037687 -0.287502
between -0.350899 -2.272837 0.078955 -0.132474 -0.453051 0.420728 -0.287251 1.525631 0.778261 -0.189932 -0.595691 0.145209 -0.311457 -0.664868 0.433494 -1.159385 0.330559 0.359497 0.096063 -0.012423 -1.094218 0.141554 0.593635 0.998383 0.627531 -0.183231 -0.343947 -0.731343 -0.906359 0.443045 -0.465600 0.264684 -0.314629 1.898685 -0.132063 -0.751552 -1.272859 -0.825377 -0.666085 -1.441800 -0.557240 1.146559 -0.936217 0.105682 -0.138616 -0.512947 -0.353615 -0.368723 0.828558 -0.161822
about -0.565501 -1.571545 -0.221800 -0.005057 -1.102361 0.384461 -1.675002 0.335841 0.768908 -0.043423 0.110408 0.803968 0.389796 -0.935127 -0.719647 0.132286 -0.593816 -0.433909 1.220048 -0.287859 -1.220234 -0.325955 0.015203 1.462902 -0.771149 -0.251510 -0.156859 0.254312 0.117670 0.529546 -0.482975 0.597457 0.633670 1.212447 0.338026 -0.891381 -1.678999 -1.051739 0.161164 -1.078003 -0.784767 0.970777 0.278463 0.054595 0.177687 -0.638469 -0.289082 -0.086680 -0.009053 -0.378280
over -0.316592 -2.274364 0.105282 -0.006547 -0.134075 -0.221177 -0.066636 0.996060 0.272097 -0.016104 0.215813 -0.252539 -0.221290 -0.525136 -0.399263 -0.385432 -0.142992 -0.563471 0.722351 -0.120188 -0.967355 -0.064804 1.018857 0.644361 0.125978 0.081523 -0.132195 0.060418 -0.654647 0.273832 -0.462711 0.303029 0.032369 1.040539 0.157450 -0.318261 -1.784637 -0.663732 -0.589581 -1.495237 -1.113556 1.209583 0.770340 -0.412946 0.328887 -0.371111 -0.127388 -0.380342 0.201558 -0.461459
years -0.137670 -2.232826 -0.445348 0.586404 -0.306551 -0.048019 -0.621368 1.035459 0.772140 0.224075 0.159487 -0.362810 -0.079053 -0.647190 0.684128 -0.290628 -0.453784 -0.658234 1.454215 0.302560 0.115882 -0.233910 -0.585495 0.606984 -0.471825 -0.118542 0.191566 -0.168351 -0.166499 0.193368 -1.474552 0.328793 0.989518 1.254203 0.641676 0.092720 -2.402848 -0.580642 0.052997 -1.503430 -0.909185 0.407841 0.969423 -0.523721 0.394785 -0.382774 -0.753989 0.237030 0.233990 -0.267391
states -0.156651 -2.746567 -1.035066 0.461484 0.224137 0.572194 -1.397032 2.188721 -0.024864 -0.432707 0.470774 -0.426745 0.903610 0.516668 0.797850 0.297375 -0.175206 -0.555481 0.542427 -0.216470 -0.712187 -1.608012 1.060070 0.541146 0.234126 0.497886 -0.641425 -0.644834 -0.275216 0.578498 -0.748795 -0.644727 -0.137175 0.602929 0.410878 -0.276747 -0.616978 -0.927681 -0.141884 -1.190578 -0.206740 0.851582 -0.284397 -0.884482 0.508321 -0.485858 -0.184326 -0.146738 -0.220560 0.314605
people -0.498941 -1.847363 -0.656230 -0.552816 -0.073187 -0.071644 -1.265093 1.446146 0.652683 -0.225391 0.709583 0.907655 -0.380469 0.411237 0.398850 0.825794 0.375966 -0.438773 1.237624 -0.623534 0.200362 -1.456013 -0.423797 1.319913 -0.455472 -0.072838 -0.363741 -0.057557 0.840234 0.864354 -0.958782 0.071704 0.311467 1.160949 0.615581 -0.916400 -1.070250 -0.570381 0.377582 -0.624784 -1.519101 1.291620 0.044673 0.100037 -0.162223 -0.045404 0.386188 -0.552829 0.015776 -0.220564
war -0.177901 -2.461842 -0.674964 -0.062698 0.558878 0.720048 -1.441138 0.800772 0.189780 0.747244 -0.001019 -0.459218 0.310627 -0.000407 1.417788 -0.314867 -0.481594 -0.867576 0.377161 1.104837 -0.461992 -1.536718 1.224548 1.614532 -0.044794 0.808413 -0.148033 0.277518 -0.433781 -0.970090 -0.703675 0.442661 -0.306289 1.194831 0.124190 -0.160832 -0.836976 -0.339181 -0.292922 -1.087763 -1.460748 0.798618 -0.035847 -0.275675 -0.545283 -0.144728 0.274268 0.663068 0.209103 -0.985388
during -0.036793 -2.149707 -0.119259 0.310415 0.500217 0.315726 -0.660732 1.270158 0.685423 0.508991 0.253196 -0.075594 -0.137601 -0.471092 0.799688 -0.345392 -0.175716 -1.056001 0.716290 0.800825 -0.062106 -0.512838 -0.479704 0.603221 0.353362 0.978213 0.136235 -0.017712 -0.148701 -0.572742 -0.842771 0.593157 0.156428 1.034097 0.419451 0.388986 -1.683675 -0.171520 -0.519513 -1.298290 -1.366913 0.399525 0.514204 -0.049547 -0.304287 -0.674335 -0.106903 0.214752 0.801211 -0.331571
united -0.206020 -2.525028 -0.767806 0.616334 0.588385 0.549906 -1.244857 2.125025 0.200063 -0.359279 0.696858 -0.570932 0.544844 0.260656 1.283891 0.232141 0.045242 -0.866050 0.933054 -0.347615 -0.649779 -1.387993 1.002341 0.660361 0.347788 0.809095 -0.349830 -0.740035 -0.321004 0.294056 -0.666680 -0.632060 -0.152120 0.179506 0.082005 -0.324752 -0.476408 -0.783723 -0.174263 -1.048648 -0.752405 0.989503 -0.245333 -1.046381 0.334271 -0.471716 -0.398870 -0.032834 0.117005 0.406121
known 0.205453 -1.957969 -0.041013 -0.465088 0.578643 0.097565 -1.366593 1.373620 0.505642 -0.672809 0.090928 0.601680 0.028668 0.186071 -0.200917 0.259524 -0.049926 -0.870932 -0.185795 -0.162602 0.024948 -0.384442 -0.613505 0.936247 -0.147725 0.729451 -0.038832 0.029717 0.268949 0.424919 -0.476849 -0.315988 0.422550 0.863586 -0.390602 0.530739 -1.294941 -0.010521 0.045300 -1.138499 -0.538264 0.918975 0.170346 0.207890 -0.179815 -0.831942 -0.941316 -0.521517 0.454690 0.171593
if -0.436888 -2.363725 0.049998 -0.590362 -0.030214 0.891299 -0.277535 0.625319 -0.196753 -0.393766 -0.419220 0.864095 -0.064436 -0.472868 -1.878848 0.626005 -0.243202 -1.052317 0.145573 -0.133850 -0.266690 -0.778631 0.352289 0.042420 0.925009 -0.163359 0.440347 0.371654 -0.249717 0.832821 -0.970625 -1.076857 0.491135 1.782064 -0.659252 -1.067252 -1.112514 -1.145036 0.289609 -0.312140 -0.976455 0.837263 0.954977 0.097899 -0.038559 -0.121324 -0.467328 -0.122363 0.328465 -0.033789
called 0.312612 -1.752372 0.048482 -0.496977 0.443716 0.544853 -0.725871 1.448762 0.337951 -1.099559 -0.257239 0.076751 -0.203719 -0.084726 -0.698139 0.191165 0.106909 -0.616865 -0.261842 -0.045112 0.181138 -0.520462 -0.201272 0.697719 0.392970 0.895604 0.061950 0.087921 -0.094400 0.629829 -0.557662 0.180678 0.037082 1.387175 -0.499428 0.297798 -0.802463 -0.463128 -0.184900 -1.047218 -0.021042 1.045345 0.204862 0.270419 -0.200982 -0.951083 -0.858846 -0.751709 0.186697 0.171992
use 0.502745 -1.193093 -0.262365 -0.021206 0.862913 0.321108 -1.113594 1.724041 0.177219 0.271077 0.306816 1.150745 0.234375 0.740028 -1.242297 0.217186 0.292360 -0.812878 1.352152 -0.034647 -0.325250 0.146399 0.144450 0.739493 0.300150 0.756963 -0.437335 -0.084316 -0.370714 0.250810 -0.604168 -0.778594 0.883899 1.110206 -0.028461 -0.551991 -0.693686 -0.843048 -0.616900 -1.137817 -0.237703 0.854629 0.307109 -0.059179 -0.951467 -0.332556 -0.586736 -1.331235 1.225410 -0.407423
th -0.901615 -2.266564 -0.372000 1.358448 0.221081 -0.543061 -1.198298 2.116677 0.590258 0.239199 -0.179290 0.677320 -0.296804 -0.299720 0.650961 -0.815226 0.405661 -0.885038 0.473958 1.090284 0.374437 -0.020378 -0.657809 1.649929 -0.197342 0.442694 0.516859 0.653012 -0.245198 -0.020502 0.002439 0.111274 -0.014058 0.676713 0.452006 0.073058 -1.562299 0.748856 0.509314 -1.065108 -0.181000 0.094949 0.342760 -0.241745 0.196567 -1.111284 -1.359640 -0.044949 -0.144684 0.155410
system 0.930225 -1.589714 -0.142237 0.200515 0.993354 -0.410354 -0.254323 1.787344 0.035760 -0.520639 -0.334881 0.819620 -0.073764 0.110888 -1.240338 1.200368 0.661005 -1.347625 0.149710 0.359701 -0.146853 0.582216 0.415490 0.659750 0.234760 0.098511 -0.404734 -0.408550 -0.178267 0.450517 -0.709539 0.055653 0.590101 0.837663 0.157409 0.465831 -1.406869 -0.810432 -1.876939 -1.512629 0.857354 1.140115 0.665289 -0.574638 -0.535427 0.150489 -0.893644 -1.062101 0.265609 -0.380345
often 0.155368 -1.228217 0.060182 -0.327444 -0.012893 0.399719 -0.947314 1.105069 0.443830 -0.838594 0.197860 0.979870 0.211751 0.778160 -0.628684 -0.391080 -0.119721 -0.741181 0.461790 -0.315851 0.073583 -0.619602 -0.195986 0.305865 0.154742 0.745304 -0.660164 -0.155242 -0.293588 0.199205 -0.496559 -0.340611 0.615407 1.437933 -0.192541 -0.298641 -1.147084 -0.389327 -0.000271 -1.079836 -1.014966 1.487433 0.768298 0.702260 -0.721988 -0.774204 -0.135612 -1.089243 1.098687 -0.204045
state -0.195023 -2.315587 -0.824009 -0.404012 0.728614 0.078837 -0.380214 1.401896 -0.232971 -0.743447 0.705596 0.784295 0.226046 0.429901 0.435079 0.832488 0.632068 -0.925492 -0.010115 0.013746 -0.325951 -2.081708 0.814212 0.435285 0.148219 0.065481 -0.775948 -0.851790 -0.513440 0.975886 -0.195121 -0.095475 -0.372483 0.918779 0.567028 -0.015158 -1.420056 -0.401998 -0.109798 -1.474183 0.573039 0.900957 0.191150 -0.867156 0.897844 -0.686599 -0.056523 0.173381 0.009187 0.428488
so -0.339204 -1.908382 0.194505 -0.312781 0.005164 0.659919 -0.522067 0.512794 0.256404 -0.478822 -0.197541 0.945368 -0.315883 -0.091335 -0.979707 0.199401 0.049901 -0.965207 0.529915 -0.224440 -0.184294 -0.394064 0.152736 0.372318 0.386642 0.125986 -0.008274 0.494671 -0.727750 0.785270 -0.819975 -0.371301 0.700716 1.252338 -0.428964 -0.540924 -1.252568 -0.445907 0.287739 -1.142488 -0.875177 0.835491 0.686425 0.034001 -0.252156 -0.225579 -0.396134 -0.231229 0.872266 -0.684162
history 0.216896 -2.248138 -0.532552 -0.094091 0.647655 0.096136 -1.414209 1.464984 0.919741 0.156745 0.186749 1.052437 0.418535 -0.031160 0.103109 -0.488619 -0.136425 -1.119261 0.335635 -0.260867 -0.229448 -0.091975 0.101877 2.030870 -1.235241 0.138874 0.077323 -0.566857 0.156592 -0.816689 0.404530 0.944203 0.062002 0.155811 0.794704 -0.111690 -1.130483 -1.296383 0.576184 -1.176666 -0.461310 0.387248 -0.602360 -0.070315 0.304693 -0.898887 -0.736198 -0.098853 0.167275 0.187304
will -0.356408 -1.697274 0.179684 0.164741 0.186712 0.557271 -0.284569 1.175028 0.020033 -0.303997 0.233082 0.818249 -0.178295 -0.562827 -1.379473 0.405876 0.436363 -1.237312 1.007483 -0.815898 0.220103 -0.450229 0.499025 0.448709 0.755996 -0.084106 -0.380597 0.508687 0.023859 1.045787 -0.953888 -0.886727 0.911320 1.866482 0.033887 -0.660542 -0.684466 -0.985551 0.160169 -0.645121 -0.880149 0.692634 0.453567 -0.215821 -0.524225 0.010228 0.126543 0.456088 0.868339 -0.703923
up -1.055308 -1.424634 0.521105 -0.344278 -0.134867 0.566606 -0.236909 0.479612 0.663578 -0.338406 0.111570 0.151045 -0.182822 -0.515417 -1.227621 -0.465973 0.414797 -1.044119 1.401668 0.162735 0.240383 -0.182992 0.438266 0.941851 0.370542 0.461237 0.207453 0.127410 -0.255573 0.943637 -0.749110 0.508302 0.115311 1.196991 -0.171581 -0.465901 -1.187341 -0.860284 -0.555888 -1.889946 -1.250413 0.779743 0.769158 -0.326263 0.248596 -0.742264 0.335108 0.168616 0.133121 -0.552797
while -0.156957 -1.851733 0.022892 0.139258 0.064276 0.505583 -0.470883 0.923696 0.409244 -0.424591 0.007114 0.681050 -0.301762 0.381039 -0.298900 -0.048209 0.047792 -0.622675 0.989892 0.086276 -0.134116 -0.468470 -0.040203 0.472348 0.117713 0.744857 -0.212085 -0.012871 -0.198995 0.402995 -0.451115 -0.083234 0.317071 1.084233 0.022437 -0.698766 -1.124790 -0.524431 -0.333462 -1.253895 -1.144439 0.952630 0.534904 -0.107070 -0.434409 -0.567538 0.037103 -0.238096 0.566261 -0.107884
where 0.139077 -2.239709 0.018970 -0.216559 -0.046276 0.360794 -0.512541 1.203500 0.749877 -0.524199 -0.298425 0.876809 -0.579603 -0.625283 -0.285784 0.192420 -0.198236 -0.771648 0.231448 -0.164065 -0.046759 -0.743320 -0.058583 0.408684 0.751948 0.491584 -0.315334 -0.351706 -0.253264 1.087695 -0.392701 -0.227829 -0.370099 0.823155 -0.014885 -0.221892 -0.516316 -0.612944 0.122746 -0.999820 -1.245280 0.468899 0.409233 -0.205566 0.175229 -0.804195 -0.698855 0.101647 0.667374 0.144848
city -0.420719 -1.411447 -0.125798 -0.203020 0.305657 -0.908887 -0.995761 1.286119 0.568394 -1.409914 0.435599 0.377417 -0.742745 -0.704225 0.928646 -0.037086 0.011022 -2.174245 0.402421 0.012806 -0.395334 -0.612412 -0.010099 1.199886 0.251084 0.578335 -0.316230 -0.376077 0.328488 1.112918 -0.113863 -0.278143 -1.261564 0.259304 0.232119 0.684448 -1.884437 0.129621 0.359360 -0.818336 -0.605806 1.020412 0.325421 -1.554676 0.410353 -0.966577 -0.142473 0.450867 0.758284 -0.607930
being -0.563340 -1.968075 0.341267 0.188582 0.400164 0.004153 -0.852462 0.955853 0.351704 -1.182294 -0.098129 0.503762 -0.339397 0.522764 -0.709210 0.131775 -0.407636 -1.304491 0.587813 -0.463077 -0.269923 -1.132937 -0.092561 -0.234152 0.007001 0.466815 0.316003 0.284755 -0.200047 -0.219537 -0.378472 -0.451584 0.533200 1.019538 -0.444945 -0.255519 -1.531793 0.045418 -0.092927 -1.181858 -1.018742 0.998135 0.371672 0.298268 -0.052973 -0.357879 -0.404860 -0.347940 0.495039 -0.368014
english 0.050723 -1.451832 -0.826621 0.642957 0.762446 -1.205454 -0.964048 1.323448 0.247134 0.912503 0.450313 1.648897 0.102907 0.573550 0.256945 -1.275811 0.869155 -0.404333 0.622960 -0.937360 -0.026297 -0.444138 -0.019340 1.728503 -0.599934 2.028875 0.459628 0.190719 -0.924452 0.331424 -0.676284 -0.025489 -0.062666 1.068835 -1.392744 -1.127107 -0.702880 -0.300388 1.316286 -0.137047 -0.782138 0.797439 -0.772561 0.413930 0.539191 -1.047519 -0.310956 -0.532701 0.202996 0.669167
then -0.340062 -2.521430 0.328088 -0.084880 -0.143347 0.773583 -0.147236 1.175981 0.456652 -0.509815 -0.304894 0.079622 -0.416594 -0.302018 -1.136963 -0.039402 0.284351 -1.278830 -0.033063 -0.025919 0.479434 -0.998339 0.092658 0.196648 0.886269 0.144582 0.434702 0.614007 -0.887263 0.849833 -0.862858 -0.337440 0.040064 0.776472 -0.518413 -0.610348 -0.856753 -0.437183 -0.071223 -1.169342 -1.017215 0.372772 0.489213 -0.292167 -0.037160 -0.565604 -0.336646 0.064175 0.058051 0.134758
any -0.366966 -2.148292 -0.080527 -0.216969 0.613698 0.441540 -0.798598 1.054040 -0.416137 -0.451585 -0.431186 1.014963 0.076626 0.330571 -1.165969 0.729747 -0.116695 -0.882236 0.024782 0.262290 -0.866510 -0.427497 0.742156 0.026813 0.573089 0.152527 0.293251 -0.261354 0.041508 0.760268 -0.869836 -0.923292 0.583656 1.896834 0.433108 -1.007510 -1.249755 -0.905966 0.073546 -0.792126 -0.456931 0.645014 0.327611 -0.005753 -0.079003 -0.209783 -0.040907 -0.578011 0.344365 0.063221
both 0.324949 -2.014790 0.157565 0.048639 0.205040 0.376337 -0.549221 1.327757 0.114288 -0.519369 -0.172350 0.505083 -0.059327 0.608859 -0.102879 -0.518847 0.086374 -0.510371 0.610013 -0.303543 -0.178116 -0.377453 0.082294 0.544241 0.001343 0.389706 -0.312148 0.148186 -0.070680 0.259039 -0.628973 -0.280447 0.446854 1.175852 -0.008817 -0.621790 -0.885821 -0.305960 -0.257868 -1.412284 -0.661027 1.228880 0.148104 0.031537 -0.159709 -0.351295 -0.164310 -0.321472 0.761413 0.139250
under 0.478788 -2.410153 -0.341031 -0.037337 0.262564 0.202863 0.166580 1.123293 -0.425514 -0.314371 0.100982 -0.302031 0.390105 0.134627 0.425092 0.703012 0.933819 -1.188362 0.992858 0.240975 -0.857304 -0.318950 0.699603 0.685280 0.052878 0.366283 0.921642 0.315998 -0.483369 -0.138605 -0.555118 0.176376 0.160973 0.661505 0.098686 0.106745 -0.906388 -0.405759 -0.173903 -2.094708 -0.507444 0.887220 0.347127 -0.046834 -0.040070 -0.616829 -0.007192 -0.200847 0.018830 0.073707
out -1.066056 -1.832504 0.540701 -0.234067 -0.104031 0.621036 -0.368084 0.514760 0.407226 -0.054591 0.188011 0.198911 -0.170953 -0.238743 -1.110350 -0.288654 0.073171 -1.057348 1.393199 0.074789 0.282443 -0.880006 0.613746 0.685737 0.449697 0.545634 0.395177 0.156727 -0.277662 0.804984 -0.364052 0.208820 0.260921 1.249306 0.127512 -0.997710 -1.305459 -0.433681 -0.407557 -1.652322 -1.360336 0.277412 0.586225 -0.014158 -0.470465 -0.664110 0.001985 -0.097321 -0.373073 -0.621772
made -0.284085 -1.398475 0.088932 -0.214540 0.473929 0.700323 -1.411518 0.282768 0.195443 -0.139254 0.496885 0.342413 0.436310 0.639571 -0.611752 -0.228928 -0.050552 -1.069159 0.676954 0.209017 -0.461964 -0.437717 0.373086 0.548503 -0.400591 0.612569 0.434100 0.061526 -0.321014 0.570265 -1.010250 -0.401326 0.924195 1.049564 0.195452 -0.194202 -1.294158 0.271461 -0.579977 -1.485624 -0.680341 0.448883 0.421082 -0.194155 -0.306436 -0.696325 -0.516014 -0.075719 0.893642 -0.126766
well 0.209943 -1.599842 0.062683 0.036934 0.215343 0.381656 -1.032225 0.888100 0.591383 -0.509173 0.152514 1.033108 -0.309165 0.477647 -0.076810 -0.168650 -0.203256 -0.944468 0.360198 -0.397485 -0.467826 -0.350342 -0.055904 0.732889 -0.232691 0.423154 -0.416707 0.278903 0.263081 0.237791 -0.737780 -0.402491 0.507818 0.833022 -0.328261 -0.141410 -1.311125 -0.065322 -0.468780 -1.269822 -0.953555 1.028433 0.660989 0.074725 0.043272 -0.565999 -0.259987 -0.639244 0.768327 -0.120654
her 0.268280 -1.730208 0.955053 0.404224 0.162570 0.721841 -0.362292 -0.436807 0.638766 -0.908621 -0.389785 -0.224582 -0.602073 0.382322 0.087207 0.459751 -0.201738 -1.116571 1.342842 -0.264907 -0.064359 0.316536 -0.197400 -0.073442 -1.211786 1.233419 -0.055060 0.148433 -0.623373 0.630436 -1.354590 0.205446 1.007002 1.130854 0.102480 -1.157352 -1.664910 -0.238531 0.854225 -1.243674 -1.434965 0.226582 0.203109 -0.235594 -0.975648 -1.395083 0.565274 0.931802 0.576081 0.774299
e 1.181256 -1.985800 0.647259 0.026616 0.059856 0.933079 -1.106284 1.436054 -0.034070 0.209852 -0.730422 1.133596 0.167895 -0.309359 -0.621370 0.017640 1.149411 -0.528524 -0.148062 0.279509 -0.451937 -0.542387 -0.143819 0.342604 -0.084771 0.423336 0.318926 -0.285616 -0.151825 0.786614 0.359328 0.157175 -0.178815 1.521994 -0.873628 -0.971769 -0.280979 0.036717 0.358825 0.138090 -0.372356 0.919512 0.484778 -1.048477 0.329339 -1.305143 -0.756762 -0.779030 0.151000 -0.146959
number -0.037655 -1.690430 0.219062 -0.481936 -0.084755 -0.512347 -1.098846 1.484917 0.326041 -0.010539 -0.952360 0.213123 0.041707 -0.676706 -0.792478 -0.815038 -0.005875 -0.800399 -0.113874 0.372497 -0.414529 -0.106059 -0.188252 0.328352 -0.164135 -0.401284 -0.179685 -0.280476 0.054171 0.434441 -1.297967 -1.190209 0.664774 1.447996 0.341040 -0.766879 -0.901997 -0.808433 0.423518 -1.305884 -0.897561 1.402071 0.900423 -0.408431 0.134193 -0.474676 -0.544195 -1.012180 0.223802 -0.124827
government -0.262159 -1.982703 -0.257354 0.131667 0.525499 -0.255436 -0.126190 0.464774 -0.553228 0.303642 -0.053274 -0.019267 0.678412 0.270891 0.960541 0.630047 1.039790 -1.795197 0.719826 0.330386 -0.536940 -1.973840 1.428959 0.737273 0.099395 -0.231991 -0.463947 -0.121860 -0.495440 0.012405 -1.494901 0.374793 0.449610 0.037217 0.312877 -0.298657 -1.391726 -0.422692 0.092164 -2.175712 0.114322 1.581075 0.520390 -0.843298 -0.213528 0.240093 0.705167 -0.597898 0.716995 0.600212
them -0.529819 -1.708334 0.154619 -0.311792 0.121544 1.015619 -0.936930 0.980052 0.001862 -0.759079 0.033538 0.815494 -0.268949 0.200501 -0.693670 -0.290224 0.085134 -0.898582 1.145375 -0.496897 -0.100410 -0.417368 0.288107 0.508140 0.058775 0.249059 0.412153 0.540041 -0.515980 0.827617 -1.147968 -0.419937 0.497868 1.308286 0.488929 -1.223782 -0.886702 -0.215338 -0.421228 -1.396469 -1.169235 0.601442 0.425932 0.272270 -0.858068 -0.285192 0.593823 -0.176555 0.124669 -0.852846
m 1.111261 -2.140792 0.426484 0.885311 -0.525564 0.075015 -1.071734 1.094208 0.259825 0.444736 -0.343918 0.452536 -0.281095 -0.917082 -1.055422 0.416571 0.994362 0.191670 0.803604 0.267756 -0.322716 0.200664 1.022650 0.895567 -0.488334 0.002546 -0.278552 0.873338 -0.124540 0.683084 0.256096 -0.183093 -0.051801 0.730099 -1.619905 0.163099 -0.439030 -0.109224 0.479280 -0.174429 -1.138923 1.340037 1.103819 -0.532551 0.587897 -0.952585 -1.654600 0.182877 0.031429 -0.431005
later 0.335928 -2.111115 0.021896 0.388406 -0.086213 0.275586 -1.158541 0.888218 0.382571 -0.052836 -0.195108 -0.108142 0.219625 0.125965 0.250803 -0.092528 -0.130644 -1.059593 0.412647 -0.072256 0.643271 -0.464400 -0.469057 0.641455 -0.569199 0.761309 0.860963 0.362289 -0.742217 0.776489 -0.643187 0.216981 0.618873 0.601828 0.468072 -0.128249 -1.742202 0.085701 -0.464920 -1.538069 -0.898425 0.358040 0.138970 -0.146961 -0.436117 -0.592753 -0.632938 -0.147214 0.353290 -0.050786
since -0.273134 -2.536928 -0.266799 0.707136 0.376592 0.029908 -0.304514 1.164255 0.271467 0.051520 -0.219933 0.576106 0.407924 -0.165163 -0.020179 0.214656 -0.035079 -1.310506 0.271814 -0.073754 -0.180162 -0.391311 -0.020728 0.395948 0.130332 -0.182312 0.113136 0.025084 -0.049469 -0.042415 -0.601751 -0.274638 0.618912 0.699320 -0.118753 0.109312 -1.224851 -0.380327 0.265923 -1.345671 -0.728551 0.658484 0.302429 -0.455308 0.042687 -0.208887 -0.882876 -0.263352 0.856350 -0.143547
him -0.251705 -1.674299 0.036943 -0.332988 -0.129044 0.935456 -0.922435 0.232743 0.409460 -0.751968 -0.077234 0.305166 -0.386707 0.121853 -0.193404 0.464145 -0.453424 -1.270873 1.009477 -0.582158 0.302282 -0.449090 0.407622 0.126322 -0.552111 0.787182 0.659964 1.181652 -0.980393 0.873158 -1.170032 -0.125671 0.296391 0.669909 0.228682 -1.330863 -1.682924 0.104102 0.220141 -1.058742 -1.181660 0.429814 0.812699 0.308255 -1.384047 -0.871122 0.857508 1.152687 0.057861 0.081248
part -0.372800 -2.531565 0.117625 0.105313 0.500010 0.227665 -1.129364 0.886215 0.468603 -0.955490 0.105026 0.528986 -0.146278 0.252591 -0.188332 0.092320 -0.391660 -0.841175 -0.067597 0.147891 -0.938968 -0.107027 -0.060046 1.206610 0.121626 0.312027 -0.086655 0.091461 -0.200274 0.248134 -0.709275 -0.024206 -0.318824 0.494634 -0.047824 0.013042 -1.202416 -0.386641 -0.247698 -1.296548 -0.487203 0.723118 -0.295626 -0.362366 0.226067 -0.485941 -0.100236 -0.415832 0.633085 0.225216
name -0.074167 -1.949974 -0.365645 0.064389 1.241052 -0.206181 -0.821027 1.040753 0.515106 -0.624261 0.072212 0.368447 0.679915 -0.218021 0.015842 0.811695 0.601524 -0.903215 0.102980 -0.990536 0.537165 -0.033123 -0.543754 0.230432 -0.809046 1.214601 -0.248449 0.670122 -0.561145 1.017518 -0.199043 -0.263863 -0.407873 0.834004 0.030816 -0.241535 -1.291165 -0.891342 1.018763 -1.088548 -0.058279 0.254025 -0.676595 0.026849 -0.914205 -1.638458 -0.975106 -0.978724 0.492814 0.177022
c 0.903865 -2.521438 0.472376 0.788261 -0.537566 0.001033 -0.897886 1.760920 0.341696 0.465620 0.251025 0.790806 0.385507 -1.123492 -0.507040 -0.075633 1.154145 -0.313502 -0.373532 0.259568 -0.155515 0.395890 -0.161883 0.358256 0.079142 0.231192 0.592855 0.467771 -0.111819 0.811307 0.388380 -0.518325 -0.466942 0.453969 -1.223779 -0.572250 -0.278958 -0.565831 -0.277591 -0.249925 -0.222420 0.832349 0.799419 -0.126201 0.775414 -1.537020 -1.215926 -0.440204 0.339628 0.423636
century -0.803887 -2.506155 -0.319583 0.792240 -0.187302 -0.628949 -1.188818 1.827403 0.739188 0.424809 0.019145 0.802307 -0.506346 0.151746 0.610210 -0.976585 -0.329690 -1.238847 0.122936 0.955113 0.259573 -0.001155 -0.771294 1.765139 -0.543053 0.373566 0.595838 0.321165 -0.341589 -0.232666 0.038605 0.206383 0.461830 0.795330 0.655625 0.310453 -1.800846 1.188635 0.641207 -1.100220 -0.058507 -0.200213 -0.042716 0.278967 -0.146085 -0.472206 -0.999189 -0.794754 0.053552 -0.139739
through -0.426716 -1.939574 0.441403 0.456923 0.352676 0.566732 -0.190951 1.345686 0.112356 -0.350321 -0.204543 0.629015 -0.690719 -0.392543 -0.990694 -0.279560 0.098161 -0.857537 0.732807 -0.232401 0.149167 -0.523586 0.279184 0.811072 0.607437 0.477009 -0.570731 -0.261579 -0.533095 0.206135 -0.653544 0.777096 0.299630 1.184042 0.233226 -0.126132 -1.342578 -0.142598 -1.303438 -1.359667 -0.477348 0.506488 -0.233794 -0.100764 -0.138846 -0.591357 0.684504 -0.299251 0.065118 -0.114037
because -0.262426 -2.081363 -0.073223 -0.139591 0.162567 0.485505 -0.487810 0.864978 0.094472 -0.321920 0.170222 0.907090 0.075209 0.226353 -0.811369 0.617074 -0.525990 -0.909409 0.343461 -0.205474 -0.520794 -0.227396 -0.028803 0.292947 0.183217 0.331810 -0.414097 0.233490 -0.173611 0.740261 -0.620750 -0.592339 0.730557 1.086930 -0.377543 -0.429246 -0.978127 -0.252268 -0.087917 -1.074223 -0.658435 0.829255 0.332287 0.140381 -0.469688 -0.157815 -0.127886 -0.267638 1.019403 -0.403298
x 1.087256 -2.771436 0.747119 0.614712 -0.495665 1.658237 -0.460150 0.934664 0.063179 -0.395488 -0.225962 0.149889 -0.477317 -0.408069 -1.716123 0.057556 0.947083 -0.029416 -1.693113 -0.100354 -0.629696 -0.147243 -0.160881 -0.157787 0.201171 -0.887429 0.410419 0.562633 -0.047816 1.088775 0.562484 -0.286911 0.278917 0.870379 -1.175693 -0.585757 -0.012833 -1.483810 0.128252 0.272714 -0.839511 1.551791 1.569282 -1.535990 -0.029435 -0.844372 -1.566837 -0.606421 -0.145218 -0.388570
university 1.334331 -2.172603 -0.429698 0.765804 -0.482818 -0.452752 -1.205398 1.392724 1.235838 -0.480499 0.217190 2.021873 -1.200076 -0.038934 0.652246 0.057567 0.021763 -0.507242 0.142943 -1.110352 0.383485 -1.398364 -0.034572 1.035752 -0.482806 0.387831 -0.490163 -1.322730 -0.686681 1.066363 0.429218 0.834249 -0.226977 -1.555338 0.172848 -0.244851 -0.600767 -0.911701 -0.130099 -0.956052 -0.285443 0.046717 0.363909 -1.165167 1.013919 -0.854446 -0.654963 1.639088 -0.132599 1.111477
early -0.027899 -1.992340 0.018490 0.694886 0.161129 0.682039 -1.002596 1.385095 0.808818 0.636172 0.060495 0.611616 -0.003964 0.203284 0.228382 -0.533670 0.131447 -1.052129 0.179693 0.339501 0.112123 0.496190 -1.009450 1.242395 -0.952244 1.104179 0.453400 -0.173082 0.174907 0.135244 -0.190310 0.353215 0.793454 0.812844 0.981203 0.319701 -1.667214 -0.123139 -0.262200 -1.532647 -0.566845 0.156589 0.009984 0.031406 -0.126682 -0.519408 -0.571982 -0.420511 0.760781 -0.198878
life 0.516012 -1.631786 -0.045389 0.429875 -0.414206 0.965687 -0.679192 0.453379 0.583426 -0.678995 0.100565 0.879375 -0.694435 -0.508210 -0.030216 0.609717 -0.054105 -1.015925 0.530059 -0.051089 -0.968092 -0.000017 -0.766496 1.104593 -1.324599 -0.351095 -0.159057 0.195342 0.197156 0.351863 -0.635102 0.193098 1.386277 1.543732 0.452811 -0.234317 -1.894733 -0.091326 0.249821 -0.931203 -0.772999 0.112610 -0.017875 0.223791 0.019338 -1.212935 0.266800 0.462416 -0.276334 0.126515
british -0.325205 -1.637884 -0.676800 -0.035987 0.885600 -0.405784 -0.968451 1.463796 0.093746 0.899649 0.104620 0.101164 0.594290 0.859873 0.924911 -0.163785 1.169335 -1.101256 0.115333 -0.053395 -0.370031 -0.764422 1.027786 1.438405 -0.518471 1.900644 -0.170091 0.196471 -0.833586 -0.241327 -0.773005 -0.529328 0.475512 0.571073 0.034154 -0.660560 -1.045201 0.363396 -0.078284 -1.022730 -1.638503 0.667039 -0.864819 0.080461 0.767890 0.031767 -0.223663 -0.050073 -0.400133 0.876826
year -0.605109 -1.887399 -0.625014 1.004180 0.211906 -0.218220 -0.614285 1.346511 0.698078 0.294111 -0.021892 -0.378321 0.283858 -1.214510 0.532135 0.062872 0.027218 -0.672774 1.298746 0.268513 0.653437 0.128793 -0.643991 0.375876 -0.165749 0.128985 0.131014 -0.339921 -0.034425 -0.028580 -1.824688 -0.131332 0.306892 1.136127 0.301545 0.081452 -1.910246 -0.974678 -0.077752 -1.149562 -0.336033 0.385288 1.330553 -0.337426 0.306085 -1.135308 -0.764548 0.355797 0.138957 0.465153
like 0.498347 -1.445309 -0.060998 -0.699011 0.100843 0.882442 -0.585039 0.655265 0.459268 -0.386744 0.147974 0.645232 0.064067 0.510918 -0.738535 0.112854 0.024731 -0.339025 0.348597 -0.214713 0.203465 -0.140733 -0.235437 1.326351 -0.412641 0.719498 -0.303911 0.106397 0.218488 1.224821 -0.219734 0.039201 0.474652 1.617902 -0.313336 -0.222878 -0.478830 -0.060440 -0.285438 -0.832438 -0.650743 0.810883 0.182699 0.269742 -0.059133 -0.802298 -0.696395 -0.796823 0.854446 -0.463734
same -0.243254 -1.762532 0.035022 0.096356 0.176645 0.015683 -0.644095 1.143791 0.783352 -0.650651 -0.268986 0.584809 0.160052 0.006469 -0.702514 0.217739 0.169085 -0.417294 0.034670 0.139368 -0.532998 -0.287296 -0.011779 0.251265 0.877545 -0.004235 -0.089470 0.115537 -0.578816 0.884518 -0.543514 -0.252990 0.514510 2.131094 0.218224 -0.637128 -1.068417 -0.854019 0.218184 -1.103950 -0.380952 0.733623 0.198325 -0.011640 -0.403254 -1.018740 -0.647131 -0.682348 0.604877 0.128906
including 0.721524 -1.553375 0.000259 -0.257125 0.206026 0.311531 -1.139587 1.326503 0.239275 -0.053118 0.378825 0.220430 0.265742 0.419375 0.076801 -0.395531 0.212562 -0.648407 0.669187 -0.144354 -0.699768 -0.326743 0.005083 1.157646 -0.874622 0.393428 -0.129744 -0.500071 0.676458 0.034483 -0.383509 0.053303 0.151578 0.959566 0.758004 -0.330137 -0.679651 0.068270 -0.658044 -1.103088 -0.902648 1.113306 0.397852 -0.527372 0.309139 -0.648622 -0.082318 -0.874107 0.275084 0.167335
became -0.502463 -2.153702 -0.316910 0.452373 0.796765 0.462220 -0.623841 0.187812 0.789632 -0.601073 -0.279013 0.198930 -0.336403 1.000742 1.181523 0.354356 0.168976 -1.170713 -0.226382 0.195991 -0.059369 -0.250042 -0.519030 0.880344 -0.682232 0.507275 0.275702 -0.009143 -0.803174 0.201369 -0.300197 -0.489496 0.346553 0.205232 -0.576560 -0.330432 -1.829897 -0.136143 -0.086520 -1.859908 -0.614171 0.676284 0.045111 -0.257654 0.382965 -0.609101 -0.489193 0.230530 0.595645 0.155254
example 0.195549 -1.730163 0.112741 -0.325666 0.220567 0.476855 -1.037799 1.229062 0.349457 -0.196462 -0.036091 1.087900 0.281630 0.040527 -0.970483 0.055222 0.466417 -0.663905 -0.036595 0.047602 -0.390091 -0.348602 -0.070195 0.711359 0.136174 0.119459 -0.115898 0.046150 -0.201412 0.613865 -0.208545 -0.396285 0.386846 1.558586 -0.179322 -0.469294 -0.683425 -0.952971 0.185550 -0.642467 -0.280347 0.673778 0.425159 0.233251 -0.232186 -0.752542 -0.474948 -1.085570 0.459191 -0.062314
day -1.500119 -2.004999 -0.916572 1.297497 0.197939 0.759421 -1.150373 1.026815 0.673477 -0.772746 -0.365554 0.214219 0.239420 -1.334555 0.505989 0.596731 0.397022 -0.694324 1.132458 -0.060879 0.239432 -0.516801 -0.623648 1.438116 -0.171140 0.786614 -0.564606 0.036178 0.269618 -0.917303 -1.096246 0.169650 -0.642158 1.706082 0.848197 0.186737 -0.364972 -0.144065 -0.017492 -0.095911 -0.619215 0.361429 0.276654 -0.497377 -0.297947 -0.794365 -1.106556 0.405801 0.870887 0.466761
each -0.697854 -1.450898 0.504829 -0.377954 0.038876 -0.310370 -0.939081 1.479304 0.387696 -1.161453 -0.468802 -0.026344 -0.221338 -0.286625 -1.263150 -0.746626 0.460839 -0.661803 0.321710 0.310553 0.391448 -0.371033 -0.142179 0.080069 1.018998 -0.065572 0.090521 -0.059523 -0.301396 0.603748 -1.233480 -0.606050 -0.109918 2.041673 0.412485 -0.616128 -1.031100 -1.430696 -0.012809 -1.093813 -0.194939 1.076916 0.440450 -0.548489 0.358241 -0.649053 -0.179634 -0.562988 0.167050 0.115176
even -0.256005 -1.904419 -0.214557 0.020724 0.093639 0.469835 -0.501561 0.729785 0.151143 -0.257190 0.012049 1.015596 -0.240426 0.412581 -0.509577 0.216265 -0.378486 -0.671634 0.400909 -0.025483 -0.390387 -0.157625 -0.077534 0.409181 0.067284 0.284819 0.134188 0.030974 0.037160 0.760317 -0.758497 -0.549578 0.723695 1.332081 0.204265 -0.489111 -1.254944 -0.139627 -0.003184 -1.104820 -1.084087 0.755186 0.603992 0.376076 -0.266092 -0.107740 -0.228693 -0.535331 0.961654 -0.504142
work 0.476482 -1.174987 0.309926 0.973503 -0.586691 0.468055 -1.488764 0.366759 0.879514 -0.297820 -0.595767 1.108947 -0.178240 0.183591 -0.711155 0.105621 -0.621066 -1.564348 0.408288 0.330302 -0.419897 -0.419086 0.081676 0.889911 -0.514903 0.590825 0.176657 0.208481 -0.138351 0.728705 -0.893805 -0.320464 1.311241 0.893224 0.236307 -0.391761 -1.006117 -0.172008 -0.100821 -1.806782 -0.534625 0.045206 0.551174 0.103216 -0.050110 -0.825726 0.171996 -0.329345 0.058660 0.068872
language -0.045547 -1.617512 0.084297 1.253398 0.783823 -1.175394 -1.052315 1.024663 0.819581 0.237096 0.107563 1.894596 -0.331447 0.454224 -0.344967 0.199531 0.852984 -0.792392 -0.099159 -0.302176 -0.716173 -0.481208 -0.456037 0.878033 -0.732185 0.434274 0.447367 0.182268 0.234359 0.871319 -1.223016 1.116832 -0.025669 0.321589 -1.003952 -1.127173 -0.547467 -1.465737 0.176557 -0.748930 0.202519 0.254419 -0.857616 1.004468 -0.008156 -0.532378 -0.826786 -2.425187 0.765857 -0.089618
although -0.041372 -2.040460 -0.239006 0.168345 0.262128 0.062644 -0.635908 0.938656 0.137283 -0.294124 -0.009617 0.573792 0.486146 0.246474 0.152740 0.152097 -0.256898 -0.649026 0.528320 -0.157033 -0.365008 -0.047569 -0.256284 0.419412 -0.084686 0.362805 -0.132678 0.123180 -0.031267 0.297999 -0.563662 -0.289121 0.528098 0.796279 -0.025583 -0.124579 -1.203065 -0.279656 -0.005665 -1.369011 -0.699469 1.079972 0.239640 0.145374 -0.135075 -0.277956 -0.646059 -0.589812 1.126682 -0.134548
several 0.573576 -1.331806 0.444602 -0.144012 -0.252640 0.028542 -1.349495 1.260343 0.205739 -0.423194 -0.104802 0.186032 0.343287 0.016859 0.304267 -1.070807 -0.272538 -0.727316 0.352106 -0.046509 0.066040 -0.297146 -0.093109 0.566622 -0.137031 0.370390 -0.005320 -0.608855 0.226589 0.278376 -1.000774 0.055285 0.249901 1.147480 1.194940 -0.078006 -1.308805 -0.353104 -0.515582 -1.464925 -0.934976 0.876794 0.528858 -0.288104 0.459744 -0.486992 -0.279207 -0.824982 0.620605 -0.661878
form 0.478084 -2.134295 0.392623 0.002776 1.105026 0.751556 -0.626606 1.253624 -0.064240 -0.388145 -0.134513 0.773283 -0.507478 0.399994 -0.865048 -0.400515 0.136255 -0.105261 -0.100566 -0.158199 0.082714 -0.369297 0.028825 0.296386 0.494010 -0.017368 -0.478628 -0.200266 -0.367541 0.696483 -0.566222 -0.262854 0.397876 1.281332 -0.467763 0.244486 -0.795248 -0.543689 0.799516 -1.448571 0.345763 0.758694 0.008583 0.496787 0.240309 -1.267705 -0.213611 -1.175702 0.779324 -0.025421
john 0.307457 -1.993360 0.218262 0.434083 -0.809107 0.784134 -1.494229 1.375791 0.260598 -0.638531 0.395261 0.341776 0.901633 0.167839 0.477478 -0.154486 1.251751 -0.771218 -0.037840 -1.052379 0.647615 -0.135208 0.520641 1.317690 -1.749261 1.129228 0.799187 0.339801 -1.179549 -0.374571 0.435793 -1.011082 0.151411 0.670151 -0.150774 -0.261068 -1.106372 0.653773 -0.331235 -0.152564 -0.412968 0.467365 0.569972 0.064313 0.154057 -0.972123 -0.653587 1.184696 -0.684000 0.757257
u 0.834275 -2.039099 -0.300353 0.274682 0.393565 1.226436 -1.374243 1.417276 -0.307691 0.662600 -0.018982 -0.560596 0.972412 -0.228893 0.310631 0.088321 0.281726 -0.821231 0.570078 0.313275 -0.766060 -1.031371 1.048541 0.304839 0.123359 0.936491 -0.357116 0.111747 -0.397754 0.754181 0.039494 -0.454668 -0.494616 0.479591 -0.494057 -0.426487 -0.792841 -0.834869 0.513993 -0.366796 -0.557882 1.307444 0.936320 -1.815278 0.646610 -0.751064 -0.724051 0.099471 -0.296967 -0.087574
national -0.472733 -1.204342 0.299345 -0.092094 1.616081 -0.423660 -1.573374 1.565551 0.244899 -0.057050 0.077839 0.466025 -0.161096 -0.134338 0.994811 0.891376 0.882279 -0.842872 1.029257 -0.242694 -0.167033 -1.035239 1.475039 0.729760 -0.609305 0.599280 -1.210476 -0.583043 1.355324 -0.220244 -0.474974 0.827936 -0.061365 0.652402 0.447636 0.037651 -0.462362 -0.843376 0.114824 -1.367839 0.459281 1.295427 0.334705 -0.651955 0.646805 -0.627280 -0.665352 0.896022 0.463567 1.003765
very -0.618895 -1.440097 0.209748 -0.150957 0.262045 0.680219 -1.066843 0.034130 0.606963 -0.315290 0.584054 1.515622 -0.346134 0.180015 -0.449844 -0.020741 -0.266158 -0.635038 0.117642 0.176921 -0.491485 0.330736 -0.290703 0.594757 -0.069183 0.372411 -0.577232 -0.034528 -0.372417 0.338740 -0.706273 -0.473877 1.022318 1.057387 -0.774895 -0.229965 -1.244915 -0.517219 0.002705 -1.369963 -1.209616 1.145489 0.929007 0.677073 0.403158 -0.421858 -0.420484 -0.522902 1.516636 -0.705533
much -0.439512 -1.951122 -0.178932 0.402402 0.088353 0.141591 -1.011698 0.317645 0.539080 -0.097911 0.627189 1.200632 -0.132211 -0.030940 -0.465197 0.232496 -0.764232 -0.662743 0.599173 0.042753 -0.603859 0.413094 0.202870 0.987745 -0.045482 -0.018567 -0.741841 0.391777 -0.763858 0.569941 -0.185897 -0.228990 0.768525 0.790076 0.047168 -0.401087 -1.538314 0.004466 -0.228227 -1.572474 -1.057824 0.898424 0.812571 0.333826 0.189050 -0.634188 0.570069 -0.628918 0.953412 -0.739043
g 1.365272 -1.953469 0.344104 0.258667 -0.223005 1.044076 -0.542819 1.450760 0.471248 -0.066442 -0.609060 0.640143 0.439619 -0.494632 -0.572427 0.128596 0.940177 -0.764196 -0.151524 0.718691 -0.708454 -0.230927 -0.111271 0.151931 -0.072192 -0.100912 0.856417 -0.152121 0.129240 1.180405 0.234789 0.009451 -0.298214 1.333780 -1.717764 -0.972510 0.078132 -0.023168 0.113210 0.057017 -0.177170 0.843826 0.840937 -0.280412 0.612065 -1.556273 -0.702941 -0.715320 0.077196 0.090794
french -0.088316 -1.994746 0.211886 0.842163 0.681535 -1.229481 -2.010667 0.203953 -0.530855 0.675495 -0.856440 0.821046 -0.207779 1.170899 0.694013 0.183311 0.544844 -0.603287 1.142628 0.940977 0.019661 -0.507399 0.389491 2.177994 -0.376574 1.584942 0.977761 0.354986 0.105455 -0.325620 -1.311024 0.221724 -0.555203 0.385600 -1.085017 -0.687024 0.002831 0.311314 0.695524 -0.575432 -0.840049 0.883618 -0.531678 -0.288198 0.363649 -0.526011 -0.004847 -0.975595 -0.147470 0.765427
before -0.542061 -2.061633 -0.170767 0.570659 0.374254 0.672903 -0.322064 0.977326 0.331382 0.063315 0.025426 0.457865 0.054138 -0.435866 -0.369674 0.174460 -0.138855 -1.061090 0.894016 0.109928 0.298874 -0.498715 -0.445948 0.298135 0.390962 0.982386 1.026831 -0.049706 -0.406897 0.240024 -0.823384 0.621249 0.089869 1.184828 0.579926 -0.334108 -1.266632 -0.352675 -0.384826 -0.999690 -1.123469 -0.038048 0.573754 -0.184605 -0.324561 -0.561543 -0.270368 0.414240 0.246453 -0.247903
general 0.591596 -1.667404 -0.606850 0.021421 -0.209142 -0.227579 -0.873699 1.309991 0.159099 -0.419075 -0.169846 1.015068 1.175975 0.179689 0.686043 1.107167 1.247548 -0.925313 -0.045134 0.828452 -0.309858 -0.110361 0.516269 1.257119 -0.030122 0.306484 -0.178503 0.351211 -0.513553 -0.054696 -0.830750 -0.367790 0.408171 0.697572 -0.312641 -0.447049 -0.204740 -0.653661 -0.702735 -1.496469 -0.202604 1.094337 0.757417 0.299774 -0.394977 -0.342180 -0.319192 -0.115462 -0.642748 0.639280
what -0.826740 -1.814844 -0.169500 -0.141373 -0.523088 0.695323 -0.930284 0.561574 0.954054 -0.570944 -0.081420 1.472355 0.539770 0.038973 -0.727796 0.505923 -0.108318 -1.083503 0.367155 -0.645758 -0.331061 -0.769582 0.569778 1.110662 0.177640 -0.197068 0.151747 0.653500 -0.384418 1.053504 -0.264911 0.185022 0.592917 1.525555 0.247186 -0.672859 -1.237843 -0.705607 0.595053 -0.673672 -0.626142 0.205052 0.164378 0.456136 -0.612874 -0.096912 -0.363492 -0.318082 0.460549 -0.096016
t 0.587095 -2.055576 0.391880 0.078635 -0.136058 1.174683 -0.483017 0.615981 0.444092 0.984598 -0.607626 1.363753 0.647448 -0.363100 -1.019969 0.736285 0.208012 -0.795481 0.517524 -0.713818 0.439129 -0.611430 0.782078 0.961935 0.704830 -0.115301 0.342600 1.139574 0.210426 1.843831 -0.161262 0.203790 0.582910 1.367446 -1.196071 -0.545614 -0.211022 -0.319864 0.770295 0.052353 -1.074631 0.477162 0.958166 -0.704590 0.405569 -0.108269 -1.225763 0.124678 0.473869 -0.437513
against -0.585595 -2.187397 -0.138800 -0.069616 0.575963 0.933409 -1.072346 0.749997 -0.582164 -0.284583 0.580154 -0.084245 0.160815 0.375474 1.109486 -0.160489 -0.381840 -0.351461 0.628457 0.578613 -0.792034 -0.894546 0.934275 1.039899 0.772023 0.338233 1.029139 0.128913 -0.234021 -0.065213 0.785910 0.137088 0.279633 1.064624 0.502195 -1.391337 -0.422658 -0.227493 -0.427642 -1.247020 -0.892152 1.479438 0.640118 0.079092 -1.656559 -0.104210 0.640118 0.197980 -0.249835 -0.606329
n 0.803524 -2.492607 0.629938 -0.437750 -0.484809 0.353445 -0.406697 0.707379 0.006966 0.008078 -1.126444 0.104187 -0.173389 -1.124208 -0.786052 0.477113 0.961581 -0.211980 -1.097097 0.533719 0.462537 -0.443380 -0.300459 0.953861 0.878432 -0.488376 -0.219332 0.718426 -0.278555 1.359792 -0.528049 -0.555743 -0.590432 0.782224 -0.956120 -0.546047 0.038809 -0.804332 1.158517 0.012624 -0.805931 0.875364 1.055444 -1.050276 0.586318 -1.413523 -1.070551 -1.147478 -0.613205 0.673023
high 0.583684 -1.482634 0.117909 -0.155506 0.492912 -0.998572 -0.218552 1.555443 1.056965 0.166378 1.194541 0.678412 -0.809487 -0.358775 -0.668555 -0.119167 0.351979 -0.634995 0.580360 0.272958 -1.072063 0.042480 0.133975 0.111470 0.620365 0.550716 -0.817325 -0.060941 -0.721372 0.480936 0.048999 0.065884 0.689672 0.917238 -0.518951 -0.205567 -0.839116 0.135564 -0.746124 -1.147805 -1.019432 1.666458 1.959412 -0.453734 0.441302 -0.672178 0.331115 0.732792 1.462107 0.291432
links 0.625485 -0.781701 -0.521326 -0.278148 0.798763 0.391634 -1.586689 1.148858 0.526025 0.316434 0.105641 1.053730 0.826669 -0.899243 -0.677010 0.297132 1.005092 -1.245356 0.368299 -0.692104 -0.615610 0.061352 0.173888 2.266077 -1.331997 0.040113 0.332999 -0.873489 0.470264 -0.295564 0.084912 1.051256 0.150927 0.118608 0.195928 -0.486750 0.000202 -1.427321 0.115152 -0.858715 -0.125830 1.326161 -0.397021 -0.599524 0.161898 -1.080303 -0.475554 0.263816 0.013698 0.379880
could -0.116495 -1.660393 -0.158765 -0.278956 0.222816 -0.054765 -0.902004 0.883474 -0.104627 -0.045920 0.171333 0.949785 -0.120620 0.206360 -0.913564 0.749726 0.226588 -0.900910 0.923733 -0.252068 0.264241 -0.400958 0.601132 0.422777 0.229207 -0.079094 0.387728 0.874224 -0.515602 0.977212 -0.904475 -0.750280 1.023039 1.258459 0.236911 -0.768098 -0.974154 -0.292538 -0.396454 -1.115536 -1.046136 0.418518 0.171727 0.166152 -0.529759 0.371466 -0.052866 -0.198733 0.411743 -1.303640
based 0.278943 -0.942598 -0.008130 0.653347 0.371447 -0.110448 -1.142155 1.117314 0.500747 -0.598608 0.184931 0.731450 0.385993 0.261274 -0.540414 -0.039167 0.406861 -1.036025 0.020615 -0.122849 -0.449766 -0.172864 0.256923 0.840784 -0.160113 0.547298 -0.157327 0.028438 0.368120 0.426071 0.321932 0.048793 0.709976 1.027428 0.097815 -0.185585 -0.780514 -1.082895 -0.806953 -1.456416 0.039306 1.046569 -0.038357 -0.170054 -0.047711 -0.869285 -0.730976 -1.141094 0.221017 -0.121747
those -0.001018 -1.800505 -0.005874 -0.151714 -0.358663 0.436590 -0.765961 1.406975 0.061481 -0.906346 0.028164 0.868213 -0.057383 0.576379 -0.075027 -0.135520 0.042296 -0.350406 1.122365 -0.492731 -0.563862 -0.541100 0.045412 0.292276 -0.111344 -0.160494 -0.105435 -0.075923 0.104642 0.571643 -1.007592 -0.421653 0.503216 1.476493 0.614355 -0.982041 -0.509521 0.025613 -0.331291 -1.086179 -1.022289 1.104940 0.579009 0.219201 -0.358387 0.024377 0.161685 -0.718221 0.550169 -0.470147
now -0.386403 -2.206309 -0.281857 0.218616 0.294721 0.132322 -0.825257 0.756352 0.707835 -0.934965 0.021181 0.817249 0.297666 0.186610 -0.021711 0.330581 -0.067926 -1.093767 0.410670 -0.792156 -0.116946 -0.730750 -0.166309 0.785542 0.009170 0.154010 -0.202706 0.160451 -0.193753 0.551573 -0.306814 -0.394347 0.099845 0.051323 -0.237883 0.212839 -0.988646 -0.388880 0.106746 -1.345620 -0.857158 0.565241 0.348320 -0.336811 0.299280 0.112406 -1.067815 -0.170170 0.614747 -0.342074
second -0.624895 -2.204376 0.225451 0.939317 1.031525 -0.362052 -0.778771 1.589511 0.376455 -0.484958 -0.339583 -0.370885 -0.222986 -0.664871 -0.328687 -0.240809 -0.042515 -0.859320 0.190309 0.577622 0.379385 0.149836 -0.033220 0.948999 0.021525 0.523138 0.090530 0.157919 -0.466364 -0.533227 -0.739249 -0.301626 0.099616 1.341160 -0.164657 -0.004743 -0.889576 -0.700631 0.395798 -0.703569 -0.321342 0.404452 0.697027 -0.440843 -0.352937 -0.730357 -0.431654 0.108310 -0.585860 0.117774
de 1.345479 -1.977145 1.286138 0.312670 0.032565 -0.624061 -2.078945 -0.400443 -0.099889 -0.427717 -1.627330 1.283619 0.332329 -0.355332 1.693250 1.332704 -0.187834 -0.693251 0.601703 0.334994 -0.164161 0.054481 -0.047709 1.821358 0.405714 0.754591 0.328611 0.853346 0.546334 0.344903 -0.575413 1.297969 -0.369736 0.806059 -1.105821 0.175670 0.847769 1.062899 0.741693 -1.161125 0.016817 0.499829 0.439669 -1.380113 0.347789 -1.304516 -0.565182 -0.187371 -0.494502 0.989853
music -0.169279 -0.251488 0.205275 0.535678 0.263528 1.067794 -0.950377 1.125897 1.748799 0.075406 -0.109120 0.651588 0.117407 0.392870 -0.954772 0.133462 0.071617 -0.844595 0.378911 -0.677483 0.429843 0.399423 -0.093434 1.694939 -0.310064 0.639637 0.427148 -0.055111 0.308839 1.224900 0.104701 -0.243651 0.514959 0.084855 0.700894 0.545643 -1.161732 0.178470 0.171503 -1.541491 -0.849237 1.109053 0.461729 0.775140 0.847399 -1.382017 0.537815 -1.269524 0.791572 2.184363
another -0.422416 -1.689349 0.257178 -0.023887 0.502793 0.214418 -1.038817 0.694962 0.571220 -0.531472 -0.096817 0.483402 0.100399 -0.198446 -0.584568 0.243975 -0.106194 -0.893900 -0.109038 0.255901 0.206190 0.116882 0.013880 0.801791 0.154473 0.501773 -0.000265 0.042152 -0.320833 0.517197 -0.339490 -0.520407 0.584154 1.406745 -0.184295 -0.045780 -1.484179 -0.852383 0.084119 -0.797050 -0.503609 0.604651 0.293872 0.220841 -0.450173 -0.919422 -0.081896 -0.318630 0.040169 -0.045939
large -0.309925 -1.480813 0.135123 -0.954297 0.542144 -0.516360 -1.045076 0.772309 0.338024 -0.239056 0.340344 0.163843 -0.809143 -0.467009 -0.754148 -0.222938 -0.326501 -0.904600 0.189058 0.501247 -0.785010 -0.162388 0.169559 0.751047 -0.447576 0.154729 -0.912793 -0.535408 0.331140 0.656551 -1.096474 -0.626072 0.414546 0.778550 -0.277813 -0.073079 -0.665671 0.317990 -0.465923 -2.005817 -0.779249 1.317481 0.797185 -0.240322 0.910200 -0.343244 -0.094927 -0.783016 0.481196 -0.980040
she -0.125314 -1.726345 0.128379 0.401773 -0.502572 0.414552 -0.490622 -0.376759 0.895038 -0.506667 -0.421365 -0.164509 -0.470767 0.031388 0.261747 0.650734 -0.623870 -0.781157 1.039074 -0.939229 0.355013 -0.732777 0.033151 -0.096458 -0.361063 1.262043 0.260276 0.381974 -0.552709 1.118276 -0.910592 0.270028 0.960680 1.137666 -0.321392 -0.631636 -1.818215 -0.586965 0.611562 -1.148438 -1.625135 0.122739 -0.045214 0.136018 -0.464088 -0.896923 -0.398941 1.003996 0.878996 0.781044
f 0.752533 -2.026760 0.503079 0.493114 -0.707971 0.660271 -0.728229 1.733273 0.338604 0.652404 -0.328213 -0.042221 0.729784 -0.758654 -0.480994 -0.188043 1.078486 -0.713062 -0.940596 1.108318 -0.482551 -0.286850 0.585183 -0.302740 0.603056 0.050278 0.414797 1.012395 0.299841 0.990698 0.596864 -0.741127 -0.506812 0.888253 -1.383907 -0.604908 0.073640 -0.647374 0.619438 0.108320 -0.851066 1.009192 1.190971 -0.950349 1.084310 -1.401682 -1.169438 0.042942 0.561069 0.068617
external 0.658131 -1.045040 -0.517582 -0.164947 0.815405 0.188874 -1.156106 1.185911 0.305877 0.295952 0.074813 0.948278 0.462526 -0.849985 -0.800750 0.520291 1.082792 -1.128568 0.390531 -0.350692 -0.629031 0.072071 0.142161 2.057913 -1.155115 -0.029187 0.223300 -0.903129 0.466971 -0.413347 0.200967 0.675625 0.338971 0.377276 0.227049 -0.496336 0.054817 -1.037917 -0.006613 -0.861277 -0.317592 1.139689 -0.389638 -0.604282 0.280710 -1.090726 -0.421528 0.346203 -0.134697 0.612290
german 0.188548 -1.523275 -1.006718 -0.049311 0.353975 -1.193616 -1.403911 1.119257 0.495674 1.260966 -0.416389 0.473020 0.149081 0.420227 0.471780 -0.119659 0.774858 -0.974020 -0.024147 1.502830 -0.088094 -1.523943 0.322789 1.611088 -0.966978 0.915509 1.060704 0.982702 0.129307 0.095613 -0.044138 -0.132870 -0.794531 0.785389 -0.648125 -1.399853 -0.245604 0.420893 0.150836 -1.025239 -0.437670 0.762755 -0.571031 0.598866 0.844873 -0.673723 0.332889 -0.444318 1.012970 -0.099402
different 0.236093 -1.229202 0.368338 -0.148279 -0.395715 -0.134877 -0.949778 1.945303 0.626700 -0.824871 0.114915 0.987882 0.430266 0.487866 -0.814347 -1.067867 0.253804 0.003632 0.448764 -0.093013 -0.247172 -0.246953 -0.142041 0.014253 0.502139 -0.254585 -0.375454 -0.231333 -0.161301 0.663863 -0.573042 -0.141443 0.788894 1.715826 0.773260 -0.732701 -0.488549 -0.933581 -0.061244 -1.328403 -0.601150 0.913037 -0.049029 0.299901 0.069060 -0.466485 -0.444584 -1.510213 1.025446 -0.634561
modern 0.379281 -1.646419 -0.592307 0.167047 0.410921 -0.127732 -0.944005 1.711544 0.872937 -0.016516 -0.064208 1.427935 -0.275556 1.037698 -0.188508 -0.796131 -0.175226 -0.485602 0.411996 0.183298 -0.181676 0.123047 -0.012083 1.544485 -0.671186 0.694849 -0.388278 -0.101010 0.192815 0.144416 0.327118 0.098396 0.523096 0.357181 0.227007 0.432486 -0.675945 -0.488608 0.519881 -1.280825 -0.375988 0.410999 -0.451290 0.256084 -0.418535 -0.234189 -1.064374 -1.115672 0.775910 -0.573291
great -0.068610 -2.251439 0.376362 -0.574886 0.369967 -0.705129 -0.858884 0.803412 0.650476 -0.152608 0.631463 0.617477 -0.380537 -0.521881 -0.063872 0.020502 -0.656467 -0.908426 -0.031038 0.158598 -0.361996 0.512890 1.144123 1.852824 -1.091492 0.295897 -0.490118 -0.244321 -0.442889 0.228145 -0.862966 0.472471 0.080939 1.206209 0.229368 -0.276661 -1.458734 1.258235 -0.428577 -0.526635 -0.632785 0.277234 0.313212 0.508899 -0.275962 -0.729838 0.295735 0.408403 0.472439 0.011231
do 0.417863 -1.656075 -0.075201 -0.367723 0.079094 0.831089 -0.373236 0.793869 -0.070107 -0.217357 -0.293888 1.796877 0.401954 0.085833 -0.572381 0.367770 0.195416 -0.386965 1.292753 -1.054733 0.062854 -0.524731 0.516630 1.140728 0.648022 -0.307940 -0.155846 0.667707 0.559477 1.640432 -0.931744 -0.252012 0.463131 1.948514 0.448750 -1.087797 -0.086378 -0.410348 0.456932 -0.577140 -0.750531 0.676352 0.400660 0.020306 -0.482497 0.442900 -0.338368 -0.487225 0.799349 -0.346380
common -0.152305 -1.890371 -0.139404 -0.158233 0.497628 0.169572 -0.658267 1.248969 0.057256 -0.375359 0.624370 1.277555 0.143576 0.740886 -0.299006 -0.266964 0.226759 -0.409846 0.386611 0.033337 -0.744229 0.322931 -0.456167 0.697018 -0.033751 0.918035 -0.510542 -0.735264 -0.165352 -0.076083 -0.249328 -0.309353 0.570114 1.613620 -0.249045 -0.505174 -0.706497 -0.581336 0.107529 -0.584148 0.104806 0.683067 0.258879 0.513187 -0.312069 -0.659938 -1.069172 -1.583443 0.830575 -0.201776
set -0.005898 -1.390147 0.414115 0.379548 -0.230410 0.530860 -0.358117 1.091721 0.420476 -0.948873 -0.703214 -0.025646 0.020698 0.117265 -1.602775 -0.563348 0.497873 -1.310868 -0.512781 0.657141 -0.407246 -0.119845 0.848184 0.677384 0.087170 0.196937 0.730976 0.438671 -0.070879 0.889189 -1.157249 -0.498714 0.238383 1.370559 -0.031938 -0.671304 -0.457008 -1.173738 -0.129182 -1.090618 -1.019620 0.450617 0.682446 -0.040009 0.190011 -0.568000 -1.023842 -0.955296 -0.337864 -0.093215
list 0.976479 -1.215511 -0.917399 -1.596837 0.784354 0.193906 -0.958702 1.482368 0.243066 0.462329 0.121173 0.317604 0.414432 0.116610 -0.788939 -0.344637 0.466285 -1.120324 -0.127372 -0.401883 0.181437 -0.275702 -0.189199 2.198791 -1.241222 0.122236 -0.218350 -0.799578 0.946508 -0.421245 -1.000187 -0.140056 -0.068140 0.314903 0.903877 -0.251988 -0.481093 -1.677957 0.341257 -0.454648 -0.868282 1.092096 -0.026527 -0.537669 0.754059 -0.525733 -0.453677 -1.144073 -0.224017 0.353026
south -1.091227 -2.552656 0.029579 0.148307 0.508085 -0.129201 -0.656522 1.302623 0.425533 -0.776725 0.618566 0.577917 0.218217 -0.242064 0.700483 -0.249481 0.515925 0.122672 0.535463 0.196479 -0.212130 -0.804897 0.110101 1.540812 0.154319 0.462115 -1.197049 -0.934125 -0.272589 0.880572 -0.612556 0.463191 -1.647692 -0.783544 -0.485777 -0.125061 -0.865480 -0.079841 -1.150345 -0.667800 -1.569252 0.912294 -0.208497 -0.289066 0.207691 -0.380675 -0.607686 -0.223775 -0.403633 0.349509
series 0.580802 -0.967451 0.687308 0.855156 1.258221 0.260980 -0.929417 0.678313 0.686161 -0.444172 0.086822 -0.647244 0.722127 -0.375648 -0.023519 -1.520898 -0.734377 -0.763240 -1.177113 -0.544547 0.175974 -0.368033 0.508779 0.886653 -0.065213 -0.007838 0.524411 0.742302 0.408795 0.175955 0.034823 0.334073 0.906103 1.812937 0.424768 0.074605 -1.273563 -0.656659 -1.004000 -0.832375 -1.428564 0.649214 0.515673 -0.286296 0.222115 -1.336701 -1.069893 -0.041414 -0.380410 -0.399318
major 0.148557 -1.683599 0.734254 -0.178000 0.636410 0.191766 -0.682454 1.319409 0.175017 -0.056802 -0.397128 0.747969 0.475913 -0.133993 0.687760 -1.084422 -0.200033 -1.678974 0.096229 0.574153 -0.117524 0.393437 0.038265 1.235869 -0.090476 0.181182 -0.359147 -0.899625 0.876184 0.037804 -0.158869 -0.948714 -0.231485 0.905755 0.166423 -0.278715 -1.887377 0.002187 -0.845310 -1.050381 0.049873 0.776994 0.238030 -0.733421 0.656614 -0.516142 0.124811 -0.233574 0.591685 0.035327
game -0.458424 -1.257677 -0.020779 0.512695 1.621178 -0.859492 -0.245471 0.531508 0.746710 -0.987487 0.648279 0.075923 0.766442 -0.336109 -0.798249 -0.689736 -1.039459 -1.402453 -0.149566 -0.096816 1.292998 0.385415 0.115429 1.415360 0.337570 0.043369 1.049765 -0.188705 0.999627 0.018268 0.632460 -0.786410 0.400800 1.607262 0.173187 -0.810333 -0.361334 -1.555880 -1.387367 -1.199090 -0.990955 0.364934 0.783539 0.055228 -0.102499 -1.024215 -0.854563 0.049339 0.343251 -0.131117
power 0.281124 -2.027711 -0.272203 0.017821 1.251669 -0.105814 0.596603 0.952137 0.336139 -0.092577 0.062989 -0.017069 -0.078415 0.170861 -0.099707 0.730867 0.476514 -0.876645 0.859220 0.583984 -0.729876 0.067156 1.244350 0.651175 0.488486 -0.898802 -0.304183 0.672262 -0.990616 0.131013 0.187332 -0.408497 0.946199 1.332440 0.457698 -0.171428 -0.890900 0.563641 -0.687408 -2.186820 0.018248 0.855745 0.673176 -0.709513 -0.351114 -0.640313 0.455362 -0.327765 0.332863 -0.124546
long -0.050198 -1.534626 -0.074457 0.033916 0.274829 0.383050 -0.932289 0.231661 0.104958 0.278114 0.267427 0.375638 0.021771 -0.007916 -0.392063 -0.081173 -0.354322 -0.089580 0.966646 0.674767 0.168217 0.494959 0.054630 0.607660 -0.056554 1.072429 -0.791784 -0.360724 -0.375733 0.493476 -1.347509 0.529086 0.105261 1.482063 -0.503243 0.396668 -2.105229 -0.465494 0.048888 -0.753168 -0.977997 0.944911 0.785556 -0.466892 0.168894 -0.560405 -0.694619 -0.121963 0.612570 -0.686191
country -1.068701 -1.780066 0.269124 0.083059 0.891407 0.158364 -0.837662 0.843726 0.433906 0.024506 0.107378 0.033451 0.025819 0.026392 0.122025 0.459231 0.292679 -0.789995 1.344726 -0.598750 -0.384424 -0.419587 0.650433 0.930817 -0.396121 -0.229504 -0.852474 -0.195594 0.225472 0.244728 -0.699708 0.035160 -0.850409 -0.532172 -0.156565 -0.175778 -1.922511 -0.681711 0.161318 -1.200477 -0.874530 1.362763 -0.042245 -0.101313 0.657500 -0.679901 0.549643 -1.142271 0.457920 0.724006
king 0.695333 -2.625739 -0.159688 -0.375739 0.797594 0.577125 -1.110428 0.734164 0.357687 -0.793765 1.490895 -0.491874 -0.345276 0.102382 1.068275 0.323274 0.533215 -0.784950 0.142275 -0.683312 -0.225743 0.171512 0.351057 1.022282 -0.659107 0.341558 1.591345 1.297605 -1.365944 0.167153 -0.636153 0.324776 0.036014 0.340071 -0.059054 -0.489599 -0.609113 0.265057 0.800333 -0.265238 -0.869728 0.443910 0.143357 -0.054549 -0.544599 -1.390972 0.472769 0.855468 0.523507 0.250759
law 0.849653 -2.085257 -1.171015 0.598694 -0.524836 0.101192 0.005276 1.786126 -0.563231 -0.176121 0.058740 0.776761 0.157213 0.666440 0.098796 0.608803 0.248725 -1.150006 1.116762 -0.102829 -1.564584 -0.824976 0.902411 0.143721 0.365986 0.775340 0.206579 -1.127312 -0.768446 0.602632 -0.716528 0.374389 1.098597 0.978109 -0.185038 -0.398605 -0.790959 -0.537925 0.813291 -0.983982 0.443391 0.414904 -0.427058 -0.404613 -0.328934 -0.399820 -0.315846 -0.076268 -0.760884 0.793780
group -0.438140 -1.197746 0.509101 -0.242743 0.208251 1.195435 -0.979320 1.648142 1.193554 -0.398455 -0.569431 -0.756381 -0.255322 -0.331119 0.387759 0.374221 0.765442 -0.618002 -0.139617 0.297584 -0.431951 -0.297132 0.028353 0.614582 0.034789 -0.035348 0.456640 -0.354036 0.444760 1.205862 0.011000 -0.246552 0.522912 0.767942 -0.785132 -0.961322 -0.476640 -1.262614 0.225010 -1.665954 -0.175581 1.490464 0.136360 0.385118 0.752185 -0.241034 -0.000416 -1.200455 -0.552700 0.350385
film 0.005866 -0.859798 0.317781 1.160342 0.527289 0.005208 -1.738548 0.202478 1.654101 0.414504 0.089132 -0.182570 1.437862 0.899196 -1.315604 -0.439451 -0.501128 -0.829015 -0.407263 -0.420820 0.256933 -0.962280 0.168814 1.122821 -1.007780 0.735824 -0.179299 0.926549 0.760341 -0.120592 -0.793762 0.167272 0.927162 1.574389 -0.101159 0.580285 -0.606588 -0.321955 -0.196896 -0.591282 -1.926316 0.473658 -0.155252 -0.588711 0.736425 -1.060818 0.454121 0.471786 0.418785 1.093075
still -0.492736 -1.831774 -0.205902 0.138484 0.362955 0.074681 -0.519247 0.561668 0.468635 -0.684711 -0.084862 0.952914 0.000865 0.281946 -0.185963 0.023299 -0.362365 -1.100987 0.743833 -0.533950 -0.575587 -0.147530 -0.247369 0.573370 -0.019445 0.462233 0.015331 0.290270 -0.075722 0.586016 -0.634332 -0.605746 0.380746 0.755795 -0.114323 -0.148181 -1.215020 -0.412448 0.304666 -1.489092 -0.885310 0.888210 0.391529 0.159303 -0.017156 0.247881 -0.613620 -0.431127 1.098161 -0.505260
until -0.570935 -2.311127 -0.489491 0.902872 0.386220 0.415333 0.230306 0.637052 -0.071907 0.141100 -0.020152 0.441266 0.035395 -0.306959 0.292055 0.077258 0.221026 -1.356335 0.774382 0.379593 -0.020168 -0.304229 -0.273477 0.387934 0.445917 0.321014 0.947437 0.160022 -0.484063 0.426300 -1.156039 0.338004 0.357308 0.733107 0.328411 0.068108 -1.639393 -0.245129 -0.149980 -1.625715 -0.831624 0.084568 0.205154 -0.285774 0.306544 -0.245668 -0.940808 0.501943 0.750514 -0.186786
north -0.995952 -2.378050 -0.036505 0.314802 0.320824 -0.337918 -0.740067 1.714295 0.566503 -0.681143 0.506451 0.687946 0.031923 -0.548690 0.463110 -0.562925 0.234373 -0.092624 0.176320 0.395728 -0.216599 -0.313903 -0.055898 1.360652 0.197610 0.659798 -0.951994 -0.724894 -0.338362 1.065721 -0.434183 0.504534 -1.630911 -0.628249 -0.489261 -0.063655 -0.917653 0.222180 -0.973343 -1.005094 -1.448247 0.861005 -0.335695 -0.161879 0.520088 -0.415049 -0.288928 0.027355 -0.185110 -0.179257
international 0.061286 -0.637118 -0.047059 0.977858 0.712071 0.200701 -1.088903 2.189913 0.286262 0.599204 -0.781678 0.274996 0.179799 -0.022044 0.675270 0.281713 -0.197471 -1.490240 1.145562 -0.170386 -1.065098 -0.225166 1.492614 0.617465 0.156674 0.294931 -0.164539 -1.747068 1.326051 0.240645 -0.405353 0.636058 0.013882 0.145459 -1.067683 -0.593634 -0.946153 -0.754470 -0.733979 -1.072249 0.388140 1.311310 0.004810 -1.091062 -0.462559 -0.495376 -1.019886 0.241023 0.303831 0.540792
term -0.140379 -1.612627 -1.356681 0.631095 0.630706 -0.254962 -0.523153 1.660867 0.282415 -0.122434 0.054569 0.714210 0.527649 0.608003 -0.207209 0.998847 -0.266657 -0.344779 0.311482 0.245142 0.447986 -0.442271 -0.211326 0.638236 -0.104003 0.555365 -1.004706 -0.509982 -0.518636 -0.007956 -0.169267 -0.061959 0.522216 1.604587 -0.488133 0.185468 -1.300110 -0.765622 0.618219 -0.620697 0.446079 0.727899 0.637939 0.672205 -0.650234 -0.955863 -0.514580 -1.349980 0.072920 -0.179143
we -0.123596 -2.091930 0.132436 -0.141691 -0.309969 1.539559 -0.457821 1.159113 0.353789 -0.061326 -0.704965 1.492246 -0.125775 -0.476913 -1.442954 0.546915 0.071732 -0.789249 0.113288 -0.550358 -0.114030 -0.709954 0.846545 0.574597 0.237374 -0.690292 0.002613 1.011825 -0.098181 1.450388 -1.015570 -0.353548 0.494571 1.571419 0.260860 -0.796076 -0.241454 -0.459278 0.843495 -0.126574 -1.254788 -0.194143 0.421619 0.323126 -0.163812 0.231040 -0.815596 -0.129248 -0.028911 -0.534491
end -0.781233 -2.234080 0.131513 0.559572 0.251109 0.447068 -0.038946 0.954401 0.312658 -0.174665 0.088232 0.237828 -0.029940 -0.341856 -0.729047 -0.593015 0.296255 -0.883992 0.249247 0.769743 0.202366 -0.047451 0.068456 1.105150 0.503370 0.454303 0.154185 -0.205770 -0.355429 0.283030 -0.293954 0.529696 -0.359500 1.233435 0.109923 -0.181530 -1.050062 -0.944323 -0.120455 -0.766641 -1.166570 0.489053 0.649898 -0.326296 -0.421601 -0.293639 -0.156055 0.014731 0.443261 -0.552436
book 0.213932 -1.503369 0.235366 0.787508 0.073011 0.424012 -1.801452 0.046072 -0.178902 -0.650793 0.116173 0.556351 0.346012 -0.526680 -0.758237 -0.829577 -0.469963 -0.494739 -0.327233 -1.216957 -0.388636 -0.659373 -0.371393 1.499682 -1.308860 0.436815 0.429615 0.505466 -0.371287 -0.238127 -0.024811 0.582359 0.876113 1.299806 0.623157 -0.248760 -0.880530 -0.570751 0.641033 -0.908734 0.228797 0.488100 0.224758 0.093571 -0.354682 -1.462844 -0.621627 -0.014062 -0.740842 0.086328
found 0.135031 -2.002005 0.673468 -0.564698 -0.224968 0.489958 -1.349268 1.120140 0.429789 -0.436781 0.247643 0.780731 -0.102374 -0.369894 -0.443077 -0.195859 -0.270259 -0.600567 0.551910 -0.413777 -0.463238 -0.405296 -0.706471 0.026881 -0.391146 0.516897 0.329881 -0.311080 0.100697 0.628392 -0.496311 -0.035690 0.562352 0.394123 0.092080 -0.060717 -0.720665 0.140520 0.186945 -1.410535 -0.698599 0.554059 -0.027115 0.553757 0.032040 -0.600848 -0.600737 -0.328412 0.870434 -0.249649
own 0.128151 -1.270461 0.594816 0.146387 0.551678 0.403319 -0.524466 0.459244 0.318225 -0.960171 -0.345325 0.560916 -0.143239 0.693792 -0.378259 0.002067 0.334691 -1.350025 0.634463 -0.133421 -0.286635 0.006971 0.398760 0.378663 -0.623998 0.652909 -0.262778 0.471556 0.017459 0.878892 -0.872743 -0.112219 0.792000 1.329449 0.834373 -0.979715 -1.049322 -0.397528 0.209458 -1.703328 -0.360101 0.404168 0.163745 -0.454639 -0.548047 -0.633922 0.257419 -0.320445 0.100290 -0.052931
political 0.077956 -1.999217 0.368108 0.351381 -0.286587 0.069206 -0.599030 0.696673 -0.180524 0.369619 -0.425748 0.496300 0.087597 1.184555 1.266336 0.083335 0.441229 -0.859213 -0.105453 1.129745 -0.313610 -0.837701 1.769303 0.783573 -0.682123 -0.212814 -0.414255 -1.148798 0.082214 -0.163326 0.075845 0.689420 0.508124 1.073983 0.669710 -0.608322 -2.138080 -0.506377 0.357308 -1.290759 -0.003163 1.407034 0.355926 0.388534 -0.403831 -0.421310 0.899558 -0.732546 0.678643 0.405546
party -1.590745 -2.356321 0.350090 0.109654 0.427892 0.580920 -0.244637 0.491586 -0.598630 0.169695 -0.009649 -0.488149 -0.099704 0.511347 1.410556 0.960435 1.355743 -0.826322 0.255144 0.141325 1.530845 -0.963920 1.167042 0.579817 -0.625992 -0.176293 -0.215653 -0.991711 0.355406 -0.023013 -0.423409 -0.053287 0.520001 0.697141 -0.094775 -0.392936 -0.779015 -0.575132 0.628127 -1.979800 0.992180 1.722037 0.848810 -0.325322 0.060637 0.498501 0.072245 -0.012346 1.053992 0.398841
order 0.478820 -1.724899 -0.369591 -0.518303 0.868184 -0.323405 -0.578691 1.819475 0.633835 -0.487855 -0.248984 0.443736 -0.853316 0.154302 -0.360248 -0.044609 0.822358 -0.899788 0.210475 0.651805 -0.367275 0.052130 0.477368 0.640797 -0.163604 -0.401577 -0.020038 0.196553 -0.374621 0.622047 -1.593067 -0.042181 0.394801 1.388381 0.304585 -1.194140 0.076216 -0.621390 0.245463 -0.956650 -0.342496 -0.027724 0.479553 -0.091594 -0.783010 -0.205080 -0.299523 -0.096277 -0.141126 -0.526452
usually -0.017563 -1.093818 -0.052146 -0.222038 0.518346 0.029555 -0.783649 1.125036 0.156205 -0.937095 0.166638 0.766132 -0.027138 0.425083 -1.055882 -0.348105 -0.080216 -0.404745 0.962412 -0.063566 0.047777 -0.427836 -0.424808 -0.124422 0.846363 0.860868 -0.259035 -0.076269 -0.212610 0.188183 -0.843997 -0.524603 0.325765 1.742739 -0.354200 -0.118448 -0.863580 -0.675785 -0.295154 -0.996596 -0.573626 1.134767 0.767877 0.455206 0.229749 -0.881840 -0.386842 -0.896374 1.009093 -0.381820
president 0.157779 -2.375298 -0.143562 0.747450 -0.165940 0.421529 -0.866134 0.468837 -0.364016 -0.296247 -0.031916 -0.444007 1.708555 0.380340 1.665667 1.241239 0.879105 -0.600478 0.926556 0.212806 1.521412 -1.418732 0.711432 0.295449 -0.344145 -0.321247 -0.026433 0.589570 -0.498805 -0.133027 -1.476650 -0.003328 -0.363893 0.390527 -0.357991 0.429834 -1.549928 -0.949802 -0.170269 -0.754283 0.677601 1.070473 1.348938 -1.093086 -0.154086 -0.627796 0.034592 1.105902 -0.428188 0.817829
church -0.530899 -2.092613 -0.448746 0.440804 -0.582454 -0.016270 -0.607748 1.634873 0.750325 -1.572274 -0.551394 0.334976 -0.814776 -0.226113 0.335394 0.009310 0.411516 -0.846919 0.317285 -1.032815 -0.923137 -0.298260 -0.139041 1.157187 -0.906240 0.606370 0.909749 0.025486 -0.673449 -0.094508 -0.615357 0.408192 -0.417204 1.302294 0.700990 -0.328296 -0.348382 0.458993 0.213682 -1.038887 1.414321 1.219883 0.360522 -0.322487 -0.581829 0.916465 -0.119470 0.457226 1.104391 0.704117
you -0.680943 -1.163213 0.129294 -0.343908 0.209844 1.395637 -0.454788 -0.405233 0.290245 -0.062112 0.047242 1.125182 -0.007638 -0.745875 -1.492112 0.803681 0.145871 -0.821754 1.528359 -1.410182 0.538929 -0.553073 0.953580 1.338657 0.202700 0.154586 0.375659 1.068912 -0.098615 1.524166 -0.581132 -0.131040 0.208838 1.752579 -0.057027 -1.000810 -0.554398 -0.582215 0.891897 0.148471 -1.379561 0.149030 1.138501 0.202207 -0.437666 -0.378909 -0.588358 0.021369 0.294090 -0.322670
